solver_type L2R_LR
nr_class 3
label 1 2 3
nr_feature 11084
bias 0.000000000000000
w
-0.006017259997699226 -0.1601483911465071 -0.1730482196781991 
0.3543468758288075 -0.3446296481671604 -0.3406383613956544 
0.02489476792275971 -0.1841562011583678 -0.1841073599828684 
-0.02335465194640934 -0.1549077335936791 -0.1813478294042402 
-0.08999295002706681 -0.04114881569291890 -0.1880378522731555 
0.1107510594358567 -0.1749030686557846 -0.2577161939868991 
0.04166902269595568 -0.1706047889220704 -0.2190319748237412 
-0.02253941659553869 -0.1685963088624514 -0.1508288806576311 
-0.03104188077272161 -0.1495313471502683 -0.1592743994670637 
-0.08227738259922460 -0.04859879905983786 -0.1963349034196465 
0.07230571211057650 -0.1954151344996835 -0.2254865847015427 
0.2431341393319545 -0.2384985900787073 -0.2400034284957572 
-0.01434528017536475 -0.1661722226087297 -0.1513091024719773 
0.2431341393319545 -0.2384985900787073 -0.2400034284957572 
-0.07433854547730874 -0.08907229404922361 -0.1816807913988977 
-0.02563334867007901 -0.1697018059199527 -0.1430978823985490 
0.01938316475819779 -0.1628903228697213 -0.1844699109316897 
0.1902012595987227 -0.3260662411513657 -0.1819617234652334 
-0.02619358487009205 -0.1504082125056349 -0.1621488596175364 
-0.01737385311769517 -0.1387203167781796 -0.1649095695665067 
0.2431341393319545 -0.2384985900787073 -0.2400034284957572 
0.2431341393319545 -0.2384985900787073 -0.2400034284957572 
0.2950184787584109 -0.3315117395125411 -0.3018963682166129 
0.1652618259777649 -0.2816686652885668 -0.2246223534528307 
-0.01814667835131188 -0.1567918349903341 -0.1546191432216116 
0.003704746134681778 -0.1639180178971351 -0.1720119364867236 
0.07157922070431519 -0.2129962621515362 -0.2050182956464548 
-0.03183209294100903 -0.1122607444562281 -0.1810722874761363 
0.3430640261568172 -0.3065216723944851 -0.3046438989758857 
0.3376718656317305 -0.3302195851499002 -0.3279354464870725 
-0.01314807105213511 -0.1672400723899991 -0.1560202029072201 
0.2724964470502862 -0.3367411040153802 -0.2588161510856877 
-0.03263573232314561 -0.05828393474636880 -0.2634113273466933 
-0.03199875351191861 -0.1262273320350579 -0.1776663894279932 
0.3436395766500300 -0.3324491275695145 -0.3320898014177340 
-0.03294331552900170 -0.1062336288450530 -0.1884425303463925 
-0.01184807737577764 -0.1538752928084610 -0.1808351876594440 
0.08937175074203406 -0.3028626105599001 -0.1350663335907737 
0.2117430505297685 -0.2512084750674100 -0.2498399789117845 
0.1619885454573661 -0.1485681017990861 -0.3222362201060814 
0.3562517551689666 -0.3445429584969794 -0.3475165745993756 
0.07510424087543187 -0.1683827570185035 -0.2670457304542216 
0.07969929027390263 -0.1868586901461021 -0.2267420732995253 
0.3563966837845881 -0.3455181968525227 -0.3463520145804512 
0.04479528853543605 -0.1480180176195509 -0.2345193321373701 
0.05967712730536370 -0.1946568602826860 -0.1903165136776253 
0.3293986998792322 -0.3247015107126680 -0.3228296560560137 
-0.08770508420765061 0.005260633948519559 -0.2821975752513006 
0.09256052969990979 -0.1317040993820497 -0.2464925309496066 
-0.06591798061395257 -0.3029359825409210 -0.004065923397255096 
-0.02437270841478273 -0.1075017282722886 -0.2335841754266126 
0.003637622302189364 -0.2330432455233883 -0.1068487037760014 
0.09854799243285979 -0.1544982978213791 -0.2928174092393687 
-0.009104702848541072 -0.1711922750760414 -0.1675550914469762 
0.03003256247718018 -0.2387987479385228 -0.1468290772063816 
-0.06678012590981573 -0.1568928374911777 -0.1408455710319295 
-0.03731023107929658 -0.1502926909043407 -0.1598515262958153 
-0.1439600684883757 -0.09359994952500397 -0.1060900765953620 
-0.03027333439040188 -0.1522035100542718 -0.1518009865876266 
-0.09868742929576277 -0.01812567733850733 -0.2087891799213446 
0.3568314696314526 -0.3484439119191529 -0.3428583345236781 
0.2972913859173635 -0.2939790403799640 -0.2914911554326029 
0.1601794174751535 -0.2968575085063890 -0.2279428803982518 
-0.05907056299681418 -0.1528639918572258 -0.1076589368012728 
0.1724684410797002 -0.2676488033641679 -0.2419076931664371 
-0.06024334331085145 0.07151705966873552 -0.3693283064297602 
-0.06188372194631262 -0.1289743408162694 -0.1529605353880231 
-0.1014855416873011 0.01025122691336180 -0.2503777950073992 
0.3937219897657959 -0.3825541133131954 -0.3822448593335222 
0.08110360819162205 -0.1571068703745543 -0.2738744069481093 
0.3587258351252993 -0.3462241591011049 -0.3384531009985833 
0.01421464619334760 -0.09772190526359567 -0.2549774145731985 
0.08110429572071010 -0.2240890008808937 -0.2066465951913289 
0.1839590109545314 -0.3699833470108110 -0.1656347552634120 
0.2993055472658722 -0.2845560868546744 -0.2799873907924345 
0.5825605316417385 -0.5630613317718849 -0.5424251973679234 
0.1026357957133321 -0.2777455767301090 -0.1918858467115616 
0.1533830997244604 -0.3821706208274497 -0.1408143829463996 
0.2004914416426215 -0.3902421527288907 -0.1810708829393937 
0.03124496750418246 -0.2044521835840459 -0.1807590535261297 
0.07715690847766474 -0.05990784013170755 -0.3529108346117860 
-0.05748526242596563 -0.1220078912932463 -0.1589122382974751 
-0.1098417394460362 -0.2476822211058952 -0.001458661432363657 
0.08915888166311908 -0.2123309355493174 -0.2137188729593698 
-0.1394699010137997 -0.02715249425214174 -0.1869071534448552 
0.02297267148730815 -0.1494895303350541 -0.2136965179570918 
-0.1775183015480441 -0.02993906565909458 -0.1457421880270782 
0.08805636061666715 -0.2011682188905284 -0.1845165110151253 
0.1307804827817808 -0.2304309537483469 -0.2093395009376397 
-0.2456162451257987 -0.3651802067393959 0.2612270017685748 
0.4080483663230182 -0.3768333897625766 -0.3827575966729547 
0.3499626119117162 -0.3388663617853957 -0.3413717953369886 
0.3499626119117162 -0.3388663617853957 -0.3413717953369886 
0.1148492874764025 -0.2686466156313795 -0.1669534326295911 
0.1996674209522144 -0.3151079915824434 -0.1901887023266704 
-0.1936827269508196 -0.06418683173756908 -0.05464115821103049 
0.09205732029180148 -0.2272137521908215 -0.2265464934638712 
-0.1421069845125190 -0.09587207963761767 -0.1140683662109238 
-0.02383292360216090 -0.3236933947297475 0.001229782709718324 
-0.2096798787904151 -0.1526432618789524 0.007137811327363333 
-0.1965734337874401 -0.07337016838033539 -0.07784355225466645 
0.001151127862253148 -0.1638809257365084 -0.1664192930531724 
0.06778114926125642 -0.1850290083768907 -0.2111628428649876 
0.06655020224424676 -0.2072806417151096 -0.2036315572473231 
0.2982564712888098 -0.3371478291497165 -0.3175162940631681 
-0.04694097765304983 -0.1605074567567845 -0.1445309960270749 
0.07778695584941814 -0.2287494302708400 -0.1881265274720211 
0.04502437939136952 -0.2391460472611732 -0.1401795739160229 
0.03116539515964335 -0.1755723770758102 -0.1849882023374926 
-0.2235193674034517 -0.1337094036010479 0.03389795733036553 
0.06600097553145395 -0.1693364203427807 -0.2258835731365267 
-0.08030022465283451 -0.2879428214628708 0.06049294426635125 
-0.1026615892747606 -0.1625964049223499 -0.05815704655374968 
-0.2759934693193606 -0.2698869172688317 0.2925686957432023 
-0.3295190970774704 -0.3024486556382766 0.3563386880958583 
-0.3582665357365992 -0.3208262139854008 0.3674191724883705 
-0.06115591478441537 -0.1231581964137562 -0.1830767147132220 
-0.2483289914659176 0.1320490144537690 -0.1864858960687748 
-0.2278084647851364 -0.2256574349724214 0.2429863530818939 
0.1059667654617102 -0.2293423672795085 -0.2066352004929467 
0.1382657003532983 -0.2143793935666601 -0.2764865760021265 
-0.1251663369897799 -0.1452656874527009 -0.05828394630189878 
-0.2278084647851364 -0.2256574349724214 0.2429863530818939 
0.02772620619080780 -0.1754889659158088 -0.1962175313166718 
-0.2278084647851364 -0.2256574349724214 0.2429863530818939 
-0.06555112086730415 -0.06606481875912011 -0.2073247762735645 
-0.09865056384749735 -0.2088094239705622 -0.03661069100873294 
0.1763763402976395 -0.2069800736748197 -0.2248974574585085 
-0.2278084647851364 -0.2256574349724214 0.2429863530818939 
-0.08895653071930710 -0.1153674800466628 -0.1436189165666166 
0.05818040180817823 -0.1954194692227018 -0.1405939832410185 
-0.3059107992262258 -0.07325547265309038 0.1148685315182550 
0.05454021236272729 -0.06457447658083434 -0.2172819919219822 
-0.03865483958953193 -0.1980354372538344 -0.1002473739545157 
0.04768971807017879 -0.2005415252904664 -0.1762684258884295 
-0.08316689368098497 -0.03535328381499304 -0.2324236290286864 
-0.03049023887625531 -0.06598369317894336 -0.2216881247367437 
-0.2278084647851364 -0.2256574349724214 0.2429863530818939 
0.01017566648443322 -0.2362612160739627 -0.1068759344437478 
0.007504085231368156 -0.1607502492385181 -0.1818933466807211 
-0.02034535733568322 -0.2066441574577722 -0.1306077671983574 
0.01024139053818856 -0.1692509929671070 -0.2055175421974069 
-0.05859512653913440 -0.06313592534963595 -0.2334870348077247 
-0.1315382970495182 -0.1165795739094764 -0.1005443267940781 
0.02700433270277944 -0.01488025700032567 -0.3137130791369471 
0.05201751202495465 -0.04192771946094404 -0.3395219690046155 
0.02876851162524755 -0.1435028715804246 -0.2503594763759784 
-0.008046615229145020 -0.1407518979118679 -0.1993018904958042 
0.01420558355855001 -0.1810118062330979 -0.1684487554731094 
0.08011070773640094 -0.1757137515329011 -0.2211579221159309 
-0.1407375268592567 -0.1241450017713195 -0.06321701440338051 
-0.02105076723572459 -0.1263095776065331 -0.2031058427528116 
-0.3341275193432374 0.1035878750757264 -0.04662651307982584 
-0.07587758873974718 -0.1012537829389386 -0.1634174143639319 
-0.1054834497036550 -0.1286109175143349 -0.09252338133897350 
0.01875822895176073 -0.1843634796791100 -0.1784452072053149 
-0.3195034801774436 -0.2014025865594299 0.1943439134006904 
-0.3221317751396098 0.3383253348002615 -0.3059872786102406 
-0.3221317751396098 0.3383253348002615 -0.3059872786102406 
0.08978214494215082 -0.3104539850090057 -0.08118414120079338 
-0.03390023364683749 0.04808230083334847 -0.2497192608852165 
0.2496363333983138 -0.2385195598920586 -0.2323341581050368 
0.08527232983513446 -0.2522185946444164 -0.07254883392306923 
0.05020435847417498 -0.2152561109692465 -0.1710938485262222 
0.08881590694026321 -0.2292368972654049 -0.2179310204499902 
0.2496363333983138 -0.2385195598920586 -0.2323341581050368 
-0.01973619279727715 -0.1094739433211299 -0.2012776817831967 
0.01025306540088952 -0.1401520839741039 -0.2022169273354824 
0.3423598447803319 -0.3310046115085868 -0.3126811462449604 
0.2496363333983138 -0.2385195598920586 -0.2323341581050368 
0.05054659459656521 -0.2342820849581608 -0.1498494930337500 
0.09024098159968504 -0.1751312487753182 -0.2525882163263006 
0.2496363333983138 -0.2385195598920586 -0.2323341581050368 
0.2517064861428247 -0.3210406006684030 -0.2732334490544212 
-0.09285459331738426 -0.07067600939694670 -0.1719751964034252 
-0.04675346051226849 -0.08831569641636922 -0.1815962425603153 
0.1949188778851500 -0.2685009742652349 -0.2764001226004127 
0.1726193718021296 -0.2353901992059487 -0.2724146652731019 
0.1678500970577309 -0.2276161097222744 -0.2728450010019720 
0.2356725286422585 -0.3579351431223435 -0.2207073612759422 
0.05678895865066874 -0.2322062071044992 -0.1695809406082902 
0.1200612784555773 -0.2174145551401849 -0.2534343010958797 
0.08523027964251830 -0.2775146151890380 -0.1521636777882859 
-0.05638779403721473 -0.1080045154887454 -0.1631447583547762 
0.2106246029381926 -0.3583486390489362 -0.1945474210884967 
0.07397688372482380 -0.06156441362574405 -0.2994906686785080 
0.2145951374805925 -0.2569141851897030 -0.3335138483689626 
0.3772089078512252 -0.3549385139685559 -0.3528384479883224 
7.695399808463245e-05 -0.1568447126128541 -0.1999813512301622 
0.3080874028891006 -0.2997912214722122 -0.3838439658170804 
-0.05570346505296688 -0.1549751420685474 -0.1354422493278630 
0.01699890347693287 -0.1756794672776606 -0.1710550664517232 
-0.08575876827035989 -0.06842674979940289 -0.1922335738139045 
-0.07542127552702309 -0.07178972375032491 -0.2007273994077052 
0.4117180764032619 -0.4096476751802934 -0.4092422872023768 
0.01302653974301677 -0.1577417493776618 -0.1272353812758458 
0.02618745639533299 -0.1848432358817981 -0.1288633068946839 
0.2966093289682051 -0.2752823574687737 -0.2877841451302679 
0.07435368323027938 -0.1853478604008872 -0.1470448935986145 
0.03437061499255618 -0.1800566929001451 -0.1675746149379731 
0.2966093289682051 -0.2752823574687737 -0.2877841451302679 
-0.0003977965695476578 -0.1780989039048740 -0.1352500990277497 
0.2966093289682051 -0.2752823574687737 -0.2877841451302679 
0.2966093289682051 -0.2752823574687737 -0.2877841451302679 
0.1807521475902967 -0.2253061367332443 -0.2900198487993609 
-0.04774168679106128 -0.1165721297648021 -0.1472166666672392 
0.2353275201980099 -0.3493308760233017 -0.2225513675655672 
0.08729225902182881 -0.2816447161462591 -0.1264180319386724 
0.3107609362353503 -0.3483966343385440 -0.2763279951460600 
0.3652008679446354 -0.3563657057286571 -0.3558015170195207 
-0.04397678437163196 -0.06835181507640674 -0.2243452610518726 
0.01352974704716762 -0.2038434030859018 -0.1402829010442716 
0.004576807775780920 -0.1527217864473401 -0.1862621932020016 
0.1022061982562454 -0.2573291587742112 -0.2020886006051278 
-0.1206023724272288 -0.06350542837016712 -0.1483251622051745 
0.1664337142629906 -0.3235740634203074 -0.1730470038012998 
0.08244481162183964 -0.1833877528766899 -0.2109494483093492 
-0.2494574214268625 0.04420622401327306 -0.2024631352832751 
-0.1197106234292190 -0.2701581422434708 0.02284839438637361 
-0.02710683811102862 -0.1504574690480842 -0.1659598220718747 
-0.1238370781807525 0.1359176512526324 -0.3214541592104082 
0.02563479780797946 0.007347649719408377 -0.2891020476011071 
0.09404961409309169 -0.2174325120266318 -0.2027427804564171 
-0.01451164511012477 -0.2890322516119497 0.03678739447904766 
0.3350410008990983 -0.3158657252827282 -0.2902566803335195 
0.1401548504060283 -0.2538448496267398 -0.2400588766618910 
0.06488862230806655 -0.1529117307533454 -0.2398774130611615 
0.1459416855628248 -0.2336580510044733 -0.2409676216508243 
0.2590810506622410 -0.3331268501931498 -0.2744133458797779 
0.04498399342406552 -0.1866424206382371 -0.2014567958341497 
0.06804910231765551 -0.1865956378904334 -0.2087795889091196 
0.03964556904545206 -0.1269573520957617 -0.2455192402782665 
0.01427832780421494 -0.1314871623747290 -0.1405000910056516 
-0.02732559501848419 -0.1712204106890681 -0.1426650318848040 
0.1641128151318373 -0.3376673065396618 -0.1431026567433248 
0.04170063741071283 -0.2096875438463012 -0.1976155158293931 
-0.1637598331024172 0.1686712170019623 -0.3875372841091598 
0.3350410008990983 -0.3158657252827282 -0.2902566803335195 
0.4143950781881830 -0.3868140952557880 -0.3911014457321491 
-0.1648941067473209 0.02176416757933183 -0.2337159913002633 
0.2718532120549544 -0.2592163066191738 -0.2661511446497185 
0.1626365094316710 -0.2823987383656175 -0.2585790265965924 
0.1630225014262972 -0.2828226829140255 -0.2574531896084782 
-0.1843489677849730 0.1887107231307459 -0.1690298592137230 
-0.1843489677849730 0.1887107231307459 -0.1690298592137230 
-0.09090982694404465 0.008004131896787840 -0.1486259740742673 
-0.1843489677849730 0.1887107231307459 -0.1690298592137230 
-0.2707213313152479 0.1156085653267750 -0.03532561909695290 
0.1688322760124925 -0.1628529082887433 -0.2763996940172147 
0.06175626442711128 -0.05255433197400447 -0.3795963576852982 
-0.1843489677849730 0.1887107231307459 -0.1690298592137230 
-0.04210318700544687 -0.06342278322918254 -0.1857599862013378 
-0.1843489677849730 0.1887107231307459 -0.1690298592137230 
0.1792469253747031 -0.2038037170761342 -0.3125849498092936 
-0.09906501229638649 -0.003191004635103890 -0.2000960834172478 
-0.1843489677849730 0.1887107231307459 -0.1690298592137230 
-0.1843489677849730 0.1887107231307459 -0.1690298592137230 
-0.1843489677849730 0.1887107231307459 -0.1690298592137230 
0 0 0 
0.1894401517108012 -0.2457836183199108 -0.2587338458711963 
0.2802452160399685 -0.2571177790210384 -0.2698854039837160 
0.3094446280678090 -0.2827762073580184 -0.2921230783949322 
0.02515328196939833 -0.2317004941756133 -0.1665512594480095 
-0.02200079504602154 -0.2440383739920253 -0.06136446711391404 
0.1199613668838129 -0.2979876237504379 -0.1106215063365897 
0.05502940854268137 -0.2848686515505320 -0.06668814800063650 
0.3050782167036716 -0.3800958994594542 -0.2966003468410401 
-0.05108285590897887 -0.2912345963867201 0.06020058083824178 
0.2940916248001533 -0.2595214428905286 -0.2902230417703196 
0.2940916248001533 -0.2595214428905286 -0.2902230417703196 
0.2329232223906209 -0.2230385372084941 -0.3635025433370419 
-0.08090668599651829 -0.2307302808640229 -0.002332749776806910 
0.2663988072797838 -0.2547141151515481 -0.2495477661971125 
-0.1451411873214759 0.007737631274943419 -0.2216264343689966 
-0.07771257649622317 0.09079933369523843 -0.3378339675700040 
0.09437019158021975 -0.2074176187841269 -0.2180299247400421 
0.09456645471703129 -0.2344317856394643 -0.1684828976640146 
0.04375027501587039 -0.1663351121780092 -0.2202869569403594 
0.2663988072797838 -0.2547141151515481 -0.2495477661971125 
0.2663988072797838 -0.2547141151515481 -0.2495477661971125 
0.2758536258903511 -0.2684040844047423 -0.2681600000989916 
0.01349746168447915 -0.1732064695883167 -0.1627713763440309 
-0.2886871850063388 -0.01365425498880514 -0.03328099260969383 
0.2758536258903511 -0.2684040844047423 -0.2681600000989916 
0.04156326204412252 -0.1710755217625518 -0.2163721862582536 
0.2758536258903511 -0.2684040844047423 -0.2681600000989916 
-0.06131487704942747 -0.2051514577549271 -0.07316878447092535 
-0.08253656098754718 -0.04332421164724901 -0.2055298047463652 
0.003153662619878832 -0.1564063012438501 -0.1782899358822767 
-0.02776883335086212 0.04061187849769540 -0.2546896603954842 
-0.3174368006919888 0.3346841615587555 -0.2671043636653963 
-0.01756243614048384 -0.1571711656151981 -0.1642234354779464 
-0.03040484457450917 -0.2082732604514851 -0.1437736286655691 
-0.3174368006919888 0.3346841615587555 -0.2671043636653963 
0.2918946043093270 -0.2859463776055474 -0.3691927574230853 
0.1005807419007050 -0.2197832409121835 -0.2263400615385186 
-0.07370594712750649 -0.01186792850219944 -0.2396451034053390 
-0.02955558867245840 -0.1235691573611425 -0.2000209037373848 
-0.06787059483252428 -0.1589223645891535 -0.1101174642386597 
-0.01051462539975295 -0.06765757078637606 -0.2358779041347004 
0.1199569253573136 -0.2451288936959086 -0.2475631476927593 
0.3887773462238401 -0.3712194864106284 -0.3780735678977555 
-0.01202303881497847 -0.1915508934197898 -0.1473425337065386 
0.1648717261483148 -0.2740596683527042 -0.2360220728643074 
0.3547498783375602 -0.3483779888615746 -0.3423628668610844 
0.3674089506158573 -0.3622232413129216 -0.3470427411453995 
-0.1410273313855243 -0.1801094365796216 0.006912172283092143 
0.2210827089015078 -0.2867496317037458 -0.2782088790289489 
-0.05945199466744035 -0.1360265902753922 -0.1376658162092025 
0.09099848742302374 -0.1868166006561935 -0.2165554801143309 
-0.06278116415268184 -0.1489591175449670 -0.1459323065460098 
0.3176086584663032 -0.3109217991902620 -0.3116291380338755 
0.3176086584663032 -0.3109217991902620 -0.3116291380338755 
-0.02953489038819104 -0.05241240200387541 -0.2334761704484709 
-0.02677234339958693 -0.04511474452001657 -0.2752593941647630 
0.3792320259305203 -0.3719889260815404 -0.3684167214039784 
0.005071110419625453 -0.1438807908741677 -0.2070598085368706 
-0.06404358110978745 -0.09960022138270719 -0.1555934678147360 
-0.1007071288248193 -0.1407226410956762 -0.1154636307236929 
-0.08411315511190738 -0.2466734851637636 -0.004642533486348932 
0.1149689585187812 -0.2018351560305619 -0.2501568050233292 
-0.09087338864264140 -0.02104781254788737 -0.1896361438774530 
-0.05510293873780318 -0.1653454141857190 -0.1035020227841215 
0.2324537850306092 -0.3488459641479610 -0.2482100906884816 
0.3407038095993755 -0.3310106600862513 -0.3222955531973171 
0.3407038095993755 -0.3310106600862513 -0.3222955531973171 
-0.001123300983774525 -0.1418404749696156 -0.1838690946945238 
-0.02056036445836587 -0.1122607893045159 -0.2099671231774406 
0.07038576485387327 -0.1459512233287565 -0.2720307732007568 
-0.05386393944490112 -0.1051939262850293 -0.1747005389973114 
-0.1146043184268445 -0.08484171608160294 -0.1758627125346529 
-0.008897127031621271 -0.1667624690193866 -0.1693022432731839 
0.1709984942128649 -0.2276523429966215 -0.2871865045279375 
0.1568904489782429 -0.2881347310635328 -0.1753408443467367 
-0.1737457331393620 -0.06754325932956011 -0.07824389039641700 
-0.2510640220251371 -0.07234566250223111 -0.05533421982890047 
-0.3391067055411222 -0.3148388653803824 0.3549849232059868 
-0.05102418554697449 -0.1189622027400485 -0.1616052167929739 
0.01522973833498401 -0.1215178036683671 -0.2065464085679008 
0.05212285901783109 -0.2191332198953765 -0.1746460786898083 
-0.1932670248237989 -0.1296741605380155 0.02387261697290338 
0.04820716039995258 -0.2447754394950977 -0.1370939916242215 
-0.3391067055411222 -0.3148388653803824 0.3549849232059868 
-0.03370024927573660 -0.2637342763612157 -0.02670816517790354 
-0.07459434751276198 -0.1378272278444787 -0.1298486395621858 
-0.001336501612168347 -0.1652759839508758 -0.1558827249628070 
-0.04247145420047686 -0.1596436423418701 -0.1378511788435488 
-0.2595116116826934 -0.3375490242371305 0.2898827896303431 
-0.05730377237758442 -0.06904291961070003 -0.2197762923647991 
-0.08327991463542680 -0.1676364269290225 -0.08460023291576446 
-0.3924174868122909 -0.3653541822436933 0.4087826990738120 
-0.01314989258124037 -0.1095491057048834 -0.1965662468972129 
-0.1580336343992654 -0.1097391544573841 -0.06112882232800435 
-0.03911825167912725 -0.1293431451723388 -0.1747572092751341 
-0.02022627476514276 -0.1090762628039902 -0.1892309253829118 
-0.1272599260744539 -0.07729307757303630 -0.1239537119094618 
-0.1272599260744539 -0.07729307757303630 -0.1239537119094618 
-0.1508229878354153 -0.07228241401893246 -0.1126658992061981 
-0.04917534204971547 -0.2296600237741563 -0.07084854015372913 
-0.1272599260744539 -0.07729307757303630 -0.1239537119094618 
-0.1431534601924877 -0.04393990790559792 -0.1764730387155278 
-0.08746494534691239 -0.1486726667219388 -0.1380035113138246 
-0.1433424868559374 -0.05730862605571824 -0.1579290248837836 
-0.07701676485809310 -0.2031569382466934 -0.07764077607684275 
0.01779390844591164 -0.2872961429634680 -0.1212526240653475 
0.07934322126490907 -0.2087473677238889 -0.2123689805963403 
-0.2460148079458473 -0.2039305089713863 0.06521020611427017 
-0.3680721950794986 -0.3730686473590691 0.4353127673878176 
-0.1335362305512521 -0.05917600271416863 -0.1216936716873634 
-0.08066711852176031 -0.1023488088546633 -0.1595510412807775 
-0.03000596858426080 -0.1727732399771528 -0.1103751890409632 
-0.08300863178351715 -0.2042971664718378 -0.08984223579506954 
0.09364235111500299 -0.1897607583812759 -0.2076221893729456 
-0.2143027003497271 -0.1491350905359968 -0.004330771940725701 
-0.07620558255938520 -0.2106026877517288 -0.07175594539281240 
-0.3027891118085394 -0.2640700342468106 0.1851414699587032 
-0.04199491790783982 -0.2358255923033384 -0.07493480882507436 
-0.02716191867186361 -0.2371589657869024 -0.09570947747070430 
-0.4189346005401688 -0.3978470461796471 0.4415537592556225 
-0.1263069238863255 -0.2712412369977995 0.03860063617381726 
-0.0002626339921892523 -0.2012240771684346 -0.1187274799983141 
0.2067724385425956 -0.3029194222399534 -0.2480613028346446 
-0.08210699664745738 -0.01279765696173034 -0.2529386101972797 
0.02757764610206620 -0.1656328605688260 -0.1592088773464224 
-0.1399932683745452 -0.09228668871342738 -0.1099420076813490 
-0.04694592948678329 -0.2041388603134189 -0.07821401323851314 
-0.009939459185543129 -0.2963609962652072 -0.07630547132720690 
0.01847780392007292 -0.2258861715738347 -0.1227227036793567 
0.1557260070850424 -0.2873864033513083 -0.2245962369753463 
-0.03189450134537220 -0.2062608431274229 -0.1199794285874778 
0.05758486428849240 -0.2360563740457460 -0.1530433798904104 
-0.4459077769286927 0.03553503069785249 0.02311886324698832 
-0.1481805572442741 -0.1527243793152969 -0.07047039354175146 
-0.2375891264197411 -0.1183895488723056 -0.01763853280293308 
0.02558755365896907 -0.3138755032393948 -0.1177760989083716 
-0.07724602068718449 -0.2282757834334451 -0.05463539598526322 
0.01035048726659922 -0.1957103414218003 -0.1609280689014649 
0.009128499174397306 -0.1968597292100643 -0.1429326818738328 
-0.09108555291877538 -0.2145819787924210 -0.08995549126844411 
-0.1726450185874082 -0.009828453513602318 -0.1751194157536042 
-0.1020635531511170 -0.1385748759661053 -0.1015890099045739 
-0.4372484817060611 -0.3340579928860131 0.3723126500598675 
0.1257765310203880 -0.2183962893195376 -0.3089779691778693 
-0.05912641993126797 -0.1737702178270858 -0.1272932004360771 
0.05073612522523310 -0.3010691635498380 -0.1096599731169198 
-0.09003702095894531 0.0004431603783868494 -0.2328295290872431 
-0.4390578409652777 -0.2794230731738191 0.3012343494932933 
-0.1609501382457630 -0.1863384628390943 -0.03054909707089695 
0.06653015088748805 -0.2737172397622009 -0.1376215324720310 
0.1688544166641738 -0.2202714732780916 -0.2980523385065379 
-0.05228705511181903 -0.1475842961548185 -0.1469087125382517 
-0.1684543389923066 -0.2147693770070280 0.03316286775485376 
-0.1344275241585774 0.01004580774458669 -0.2309716951963677 
-0.1868617376081847 -0.04236016228353494 -0.1325323214045087 
-0.2995873240957712 0.08694569250740301 -0.1625733348345165 
-0.07392628579549342 -0.1554935098201856 -0.1125302626464066 
0.002023512891998451 -0.2152609300791805 -0.1286852650017837 
0.09294581140292546 -0.1991132067086786 -0.2326061706612622 
0.05803486338170991 -0.1979418430292849 -0.2075885754818785 
-0.3830159693523874 -0.3805349765486013 0.4192712714160945 
-0.1136734822894324 -0.1641273404267143 -0.05895452719844042 
-0.1149804668965384 -0.07862386484869859 -0.2039135168013435 
-0.02104211285555558 -0.1370740749491838 -0.2016473359037898 
-0.4063713074465838 0.02581262990135178 0.02247734569514524 
-0.08115511691394470 -0.07322400348342631 -0.1857533005171527 
-0.04964336463380847 -0.08571244858666995 -0.2114453519816423 
0.02542203829336494 -0.2672038561667587 -0.1141070263923163 
-0.1332501589047256 -0.1104822785984997 -0.1119597006670076 
-0.2495064680244244 0.1012551750564593 -0.1964303803408105 
-0.01872757873875186 -0.1729312336054475 -0.1365219866295324 
-0.04713348565422363 -0.08220540604454694 -0.2431264818563634 
0.04534044425147502 -0.2176326245637690 -0.1761857532328057 
-0.4059190583708454 -0.05897726536951851 0.1093530129616392 
0.1158967168790542 -0.2857247312655095 -0.1002763523084386 
0.1155972499759976 -0.2044641907989121 -0.2028313035717738 
0.08254509891413297 -0.1913209172021974 -0.1896865068169065 
0.2882321142743616 -0.2689993367063915 -0.2769286328911935 
0.2901429801478762 -0.2617656300418727 -0.2758884187182931 
0.3621956319581188 -0.3323538621344235 -0.3464553502985324 
-0.03719384163910744 -0.1169039168158786 -0.1910275274819012 
-0.02705167670701933 -0.1357938168884317 -0.1851471753844145 
0.2022419027331238 -0.3534072616221445 -0.1875301348977163 
0.1054608322501902 -0.2499817926384534 -0.1870291350442611 
0.1165609542400417 -0.2579729380538193 -0.2054269058653906 
0.08953938279487221 -0.2442237703121119 -0.1801459588413826 
0.1258344585769154 -0.2229840494299671 -0.2235407858239853 
-0.02850936911510597 -0.1732371808662734 -0.1465482135272470 
0.4311048179491291 -0.3952286224530294 -0.4010496932136533 
0.1340997456567508 -0.1205696926127799 -0.4302253495757370 
-0.2047646543902831 -0.2399117397090261 0.1144292520191679 
0.2975713377872756 -0.2576478904813037 -0.2779913694473806 
0.3204484646413573 -0.3020367972702270 -0.3115205785693994 
0.2975713377872756 -0.2576478904813037 -0.2779913694473806 
0.05756705963853757 -0.2729314345801831 -0.1509821979620974 
-0.1797980832673394 -0.1769083804570639 -0.002246740262526185 
-0.1459356252237267 -0.2727669980154480 0.03886334966702172 
-0.1601806147149618 -0.3695908975157731 0.1731324250293707 
0.1011001982619924 -0.3659376313724949 -0.08531577442327690 
-0.1261271334779749 -0.2103155369755783 0.009287833984673161 
-0.2530753438130740 -0.1239164002255067 -0.005182804243354715 
0.4231537683222198 -0.3489655275973073 -0.4083968709085387 
-0.1682927293464142 -0.05501749071368738 -0.1021559340868385 
0.1818830081721705 -0.3417105135091856 -0.1412266721791190 
-0.0007784371611815669 -0.2238237134380238 -0.07380841990815165 
0.3616615687002988 -0.3366780815729041 -0.3507994576611859 
0.1165573430450126 -0.1505683851266241 -0.3021380570761849 
0.03368909848672713 -0.1653416873122670 -0.1964081110904224 
0.1247659799757462 -0.2000630224466780 -0.2415699065063226 
0.2399864302894865 -0.3374167494620088 -0.2294467034231891 
0.0003892653603496143 -0.1141271521562846 -0.2280890099330377 
0.1068865550402029 -0.1833203876094090 -0.2549858999944907 
0.3728806985388031 -0.3492302560071260 -0.3583903548746452 
-0.08347199996840860 -0.06926207206242516 -0.1664913554703111 
-0.04904655466233383 -0.1877569628425572 -0.08852421035407182 
0.01248844730165789 -0.1753420581035729 -0.1643336907978610 
-0.003441898229604854 -0.1272211969309560 -0.2131237901078205 
0.01835451992259296 -0.1885895561218783 -0.1659589531041399 
0.1565320195010900 -0.2716875718468266 -0.2081288323153810 
-0.03786347749307332 -0.2652251959201955 -0.07167694365707489 
0.04636312566465599 -0.1563231211331065 -0.2204117276877061 
0.01948586510275556 -0.1612517219594221 -0.1091499529517269 
0.1178535273999342 -0.2444797195786009 -0.1918955040023416 
0.07544757588262899 -0.3246588126574073 -0.07107768690944400 
-0.09720224599836821 -0.1130821478974266 -0.1361420982219942 
0.05463455736893740 -0.2001743734009556 -0.1736003643467617 
0.2713036424316502 -0.3479023416493500 -0.2502574074007138 
0.2953519189188880 -0.3260071352954845 -0.3139955030624439 
0.2621633814337593 -0.3635880956247699 -0.2553903039041941 
0.05446348777516002 -0.1305815107032154 -0.2307365178229255 
0.3157094564005367 -0.2933147177172654 -0.3107576822827129 
0.3637135903056483 -0.3212581971490081 -0.3187075801475645 
0.3157094564005367 -0.2933147177172654 -0.3107576822827129 
0.06885615090061939 -0.3031012575566265 -0.1079029944204560 
0.3389486532490754 -0.2676174612009726 -0.3243811331152672 
0.3254044368907874 -0.3109885662272973 -0.3190305405392488 
0.02338432472163673 -0.1146285607275268 -0.2099270790408549 
0.04265949477175487 -0.2718693398414439 -0.1226670781842495 
-0.06325719112533960 -0.3043387843941019 0.07308149752934032 
-0.06325719112533960 -0.3043387843941019 0.07308149752934032 
0.009020146425949232 -0.1155309127550588 -0.2320198605948544 
0.3389486532490754 -0.2676174612009726 -0.3243811331152672 
-0.01761539914277301 -0.1044894820733875 -0.1710898360980692 
0.02406965221284409 -0.3635653020407458 -0.01299383066841691 
0.03084914371449929 -0.3559575062366758 -0.01476891006645106 
-0.1414359332730885 -0.1085916527363002 -0.07857852905848390 
0.04321796025299803 -0.1574759870742183 -0.2156553164995393 
-0.1955447988002253 -0.001352059588367655 -0.1619598364500047 
0.03767648924551210 -0.1343466216644481 -0.1797369954005732 
0.1063934024703705 -0.3642693511000145 -0.09826187531357271 
0.4432777035245675 -0.3978791291740811 -0.4290081270987053 
0.4036123254766987 -0.3905549022876005 -0.3727808976609283 
0.04549558588802447 -0.1613664208497637 -0.1871438456772027 
0.4313074142910742 -0.3770991594558735 -0.3674673414778587 
-0.08814642000641423 0.01222997926230243 -0.2155965043413088 
0.1535651639749546 -0.1146721700642321 -0.3040188910580953 
0.1684608997635530 -0.3378262254428396 -0.1372136133594378 
0.2106619706982342 -0.1952951375098909 -0.2032185364089665 
0.2106619706982342 -0.1952951375098909 -0.2032185364089665 
0.2106619706982342 -0.1952951375098909 -0.2032185364089665 
0.02639687953828448 -0.3109183874003578 -0.01187974959453808 
0.2106619706982342 -0.1952951375098909 -0.2032185364089665 
0.2106619706982342 -0.1952951375098909 -0.2032185364089665 
0.3091953889212335 -0.3309184466581784 -0.3071119028331708 
0.3597053560384110 -0.3403266489292474 -0.3320451416994000 
0.1019452595502167 -0.08895361690957670 -0.3397658735126681 
-0.02701961215670297 -0.1034206877108788 -0.2122669519016836 
0.3597053560384110 -0.3403266489292474 -0.3320451416994000 
0.3597053560384110 -0.3403266489292474 -0.3320451416994000 
-0.02662923273838077 -0.3083158360040918 0.01932218796490009 
0.4205237922752786 -0.3817929015630256 -0.3867778821082477 
0.2708271798192596 -0.3602078247826330 -0.2725784703179084 
-0.1187098190440696 -0.2100775056587054 -0.003572749354418052 
-0.02715250523392464 -0.3126512233132834 -0.02272101221305400 
0.08981061726170540 -0.2021103594939453 -0.2242122901188549 
-0.08875281828245411 -0.2369286733441375 0.04392971366232193 
0.02035879353614442 -0.2435370561850505 -0.1346602265984801 
0.4050901914137562 -0.3652606928151567 -0.3938809368629946 
0.3955913388249449 -0.3553110297490824 -0.3708866649788932 
0.1842328860993387 -0.2581157098612981 -0.2703405133975273 
0.1310301052268679 -0.2345657731214756 -0.2452520483810417 
0.3361485053212085 -0.3267114378681122 -0.3279859552910253 
-0.04692743771081214 -0.2070707550128938 -0.03544616894140096 
0.04556938085729380 -0.3109465512263401 -0.1250958698302815 
0.006877639361303214 -0.1878773839902813 -0.1541731974643734 
-0.1366702319873598 -0.1398275805411481 -0.09393198665608911 
0.03833601806968694 -0.1713981144016948 -0.1166902179173164 
0.3361485053212085 -0.3267114378681122 -0.3279859552910253 
0.04219692805583650 -0.1619122182235097 -0.2327725246394618 
-0.03931918663158779 -0.01777801641751331 -0.2879187224158110 
0.1099989582776370 -0.2165948749839550 -0.2508015938601349 
-0.04284097241653439 -0.1047414199534018 -0.1772322166955744 
0.04268645999015493 -0.2235101406875210 -0.1700836959423090 
0.3890206809830843 -0.3849927809374051 -0.3840011149110144 
0.3891004782193868 -0.3778264241141979 -0.3802244266188860 
-0.01372260547741169 -0.3078894149543733 -0.06250195310536709 
0.4184323960574454 -0.3800766221511088 -0.4083065748399334 
0.05967866602997090 -0.2070766076461318 -0.1947044283100512 
-0.1135262266750644 -0.05744980473080352 -0.1428324019062106 
-0.06485561049028805 -0.1348829989522715 -0.1221462142359269 
0.04539136592865347 -0.2213074107679613 -0.1555174511704969 
-0.02271194117551444 -0.2417787992028929 -0.08704358703865028 
-0.1095378072300014 -0.3555430373609123 0.1287783014808873 
-0.009554956740790770 -0.1561566271191288 -0.1713974265190231 
-0.06077733524663902 -0.1433716638072195 -0.07986583058475645 
0.08053312229215207 -0.2162023190586503 -0.2046011595193528 
0.3415315422500135 -0.3147404319056420 -0.2888931228089149 
0.04697385367150864 -0.1627585771655761 -0.2185741391434390 
0.3779354795910777 -0.3536710832406974 -0.3734346752555360 
0.1557849161294537 -0.2572262247772636 -0.2618949830655604 
-0.1028194807617235 -0.3483294124853474 0.03888541365493393 
0.01883316395467097 -0.4042904022646803 -0.005127938310347142 
0.3542692257655295 -0.3254051910229261 -0.3509872675558007 
0.3324421447839541 -0.3112087693781271 -0.3289550284920346 
0.4198193730932704 -0.4030406152350539 -0.3999745795012178 
0.4129921381789907 -0.3830720955982028 -0.3808337933913132 
-0.009616606249608067 -0.1786312162826807 -0.1695003343108249 
0.007893807442326255 -0.1140055505669363 -0.2421411558156304 
-0.06466615807486534 -0.1407082108949542 -0.1385654192210575 
0.1791595622984255 -0.2922356797854749 -0.2243213231246084 
-0.1420393821905027 -0.1399770554753107 -0.05486771872168187 
-0.01465556214823902 -0.08919546617107921 -0.2052052405813939 
0.04252899754060614 -0.2402404563344370 -0.1048903557493471 
0.05329393299815438 -0.2957946634514341 -0.04123679227877626 
0.02582238437102388 -0.3469385219797002 -0.01075447452446590 
-0.05389961060807236 -0.1654086839154718 -0.1460349103508427 
-0.2547958469221469 -0.1361017616084347 0.02167389411135993 
-0.08738966895267651 -0.1695311777630419 -0.1026001593145020 
-0.03012208608633978 -0.2635890312802438 -0.03294252100560427 
0.3991520454952044 -0.3405734414568498 -0.3856208439013887 
0.1617443096563961 -0.2294899706371958 -0.2330563230797805 
-0.02816625653357740 -0.09969805034540857 -0.2097788527575783 
0.07977323901080327 -0.1533922265961474 -0.2690808601698690 
0.1171646595650702 -0.1926293234346692 -0.2251949941095362 
-0.001649164256106625 -0.3980823805079663 0.01972784322984447 
-0.1357442671752083 0.01919323976317411 -0.2525839444806211 
0.06499848040134117 -0.1996122041393220 -0.1890921886457663 
0.2411632121269608 -0.3107744291249775 -0.2927103013576908 
0.05342092717680062 -0.1924530182513832 -0.2333900435600507 
0.2762076702612291 -0.3980937221679650 -0.2527127557098891 
-0.05756195134001666 -0.1920209570362255 -0.006793263997301211 
-0.1732511246644586 -0.04610009774311445 -0.1191636873999361 
-0.1428966454962682 -0.3362144928415079 0.1633268108855021 
0.2632582745150024 -0.3977629933877904 -0.2401463876395782 
-0.09561308861288788 -0.04071626233960456 -0.1929306848017902 
0.1348200475482687 -0.1050724067533886 -0.3012881927283228 
0.1799656221301214 -0.1580540038003104 -0.3152809559881036 
0.3917461684652544 -0.3210025226880841 -0.3680399300463161 
-0.1010614912137450 -0.09961069963031782 -0.1485526680306625 
-0.08947500054154153 -0.3811120655244257 0.1022989765371278 
0.04347798243430823 -0.1898358383268353 -0.1953950832325144 
0.006660148154966167 -0.3671504792529843 0.008855321360605490 
-0.07062315847992840 -0.1603739164952276 -0.06602596104487005 
-0.2127069355657299 -0.3539082412656101 0.2314868059339867 
-0.2361765605141651 -0.1271905806927413 0.06338006375282969 
0.4292515905930325 -0.3247496390424074 -0.4131288130336394 
-5.115835889570909e-05 0.01999915438310032 -0.3553326699968086 
-0.1015853656839389 -0.009714870744765208 -0.2425160993638368 
-0.08027532774273682 0.01564549030480405 -0.2916815804075857 
0.2831107236193845 -0.2720663397843651 -0.3448685617908354 
0.1117188613767554 -0.2261437144514421 -0.2364006664141351 
-0.02064825336451315 -0.2693351983803257 -0.06906537207313557 
-0.1421859552333087 0.03873009038543116 -0.2681493288868126 
-0.1050441450392296 -0.08720730501728480 -0.1087886627135233 
-0.3941337304029774 0.4158556739242630 -0.3598283761942384 
0.1159013074937944 -0.1744016446679977 -0.2721177564312252 
-0.05701751175553263 0.07065029680981805 -0.3089662688662884 
-0.05701751175553263 0.07065029680981805 -0.3089662688662884 
0.07975914655613175 -0.07522085912250012 -0.3743887269003295 
-0.04455123855652458 -0.3560447267683247 0.05619819373431832 
0.06138813349666576 -0.2500485554488577 -0.1722419679594446 
0.03093228949856848 -0.2527820633710362 -0.1167552403609926 
0.3520989548892713 -0.3144074200789776 -0.3363697784096051 
0.4282941778579410 -0.3787408457256855 -0.3952576557670987 
-0.06328168601407237 -0.2069993839856857 -0.09807073094933748 
0.3887748653120340 -0.3675178722285939 -0.2824018302059506 
-0.02417091038128964 -0.3857378718759801 0.06461451287801588 
-0.06942189264084071 -0.4283070323422524 0.07338938897732061 
0.3786482947797585 -0.3409836155606912 -0.3738789677207595 
-0.3956522990022837 -0.3417852943054814 0.4097191418019953 
0.007875844764267111 -0.4074697168435653 -0.0007546948992661147 
0.01213928262401663 -0.2129829965165324 -0.1525102538756120 
0.02993021752172289 -0.4310128102172904 0.04381801821858188 
-0.4252577031122223 -0.4043030734036405 0.4358354492112226 
-0.2627322164849773 0.2935002317750424 -0.3762596403428727 
-0.4068420729274118 -0.3576020349364201 0.4265598469211250 
-0.3740660616570206 -0.3697542180651300 0.4035087654989432 
0.01638152911360151 -0.1636226285144958 -0.1996052445638171 
-0.2417804490498679 -0.1242841679712897 0.02992507614269709 
0.04786909794018283 -0.3208964921725888 -0.05660295331172469 
-0.3643067957490360 -0.3496928083982230 0.3853623442025381 
-0.1192319386783800 -0.1076685635463584 -0.1684517035380334 
-0.3022057455792878 -0.2918105678734979 0.3151239190766133 
-0.3022057455792878 -0.2918105678734979 0.3151239190766133 
-0.4760256235002220 -0.2855297349810233 0.3302691020924343 
-0.4102180524770295 -0.3438204779182199 0.4290101813514111 
-0.4090741880268669 -0.1100267757822376 0.1534474791464375 
-0.3921344349152323 -0.3506351101767771 0.4001844569991868 
-0.3711936827796240 -0.3990402643165614 0.4264289316637403 
-0.1811772570434099 -0.3431637748920001 0.1909103703660494 
-0.3816292723544673 -0.3632185597799165 0.4023487938064364 
0.3775730671988373 -0.3345548581074841 -0.3685316847243095 
0.3718800885799109 -0.3270046990407207 -0.3650614682707474 
-0.3282519168453799 -0.3105104135381899 0.3334932669543108 
-0.3282519168453799 -0.3105104135381899 0.3334932669543108 
-0.3924009061726296 -0.3643712681424096 0.3963311054277600 
-0.3864566845862410 -0.3832035292516153 0.3986368795763617 
-0.4545277023548558 -0.3903817219316837 0.4880026983922756 
-0.07037460787256225 -0.2186615279126992 -0.05307549519617889 
-0.2925641794988956 -0.2510158854460184 0.3031472593438362 
-0.2925641794988956 -0.2510158854460184 0.3031472593438362 
-0.2925641794988956 -0.2510158854460184 0.3031472593438362 
0.009798590866314108 -0.001828817424847862 -0.4046176309595098 
-0.09106055643454270 -0.08501372777075032 -0.1888644372364524 
0.04481529093985248 -0.08057786834024969 -0.3156688742504583 
0.02839641227337629 -0.1313467063930624 -0.2313135536224094 
0.1035574987006618 -0.2292147080226569 -0.2195342799255170 
0.05648659885504038 -0.1728703991339971 -0.2443101208983491 
0.07517242723333833 -0.2302033578451192 -0.1912591523424761 
0.3910169810065499 -0.3687762150372568 -0.3756515966734926 
0.3733637361740829 -0.3703899461225639 -0.3559965349091889 
-0.05686331197178983 -0.1338349789362948 -0.1605060295780644 
0.05382404398226795 -0.1375233485072716 -0.2574662342615736 
-0.08437767131707626 -0.1378533241551301 -0.1490562816350691 
0.02004614529884675 -0.1529739730147965 -0.2280630086900719 
0.02480583601372768 -0.07133584495090040 -0.2613380541854723 
0.1031790521439372 -0.2150659175218257 -0.2258760119257741 
0.03186393879792666 -0.1734180839462061 -0.1800803628685611 
-0.1794515239495105 0.1530384063780522 -0.3587805612121809 
0.3182502995928978 -0.3129025550506133 -0.2992021882402203 
0.3726116177926869 -0.3644039068275372 -0.3557882003999093 
0.3182502995928978 -0.3129025550506133 -0.2992021882402203 
0.1541345741591673 -0.2215068508308375 -0.2515553197959162 
-0.1525659220595759 -0.1036626532026157 -0.1061940839470075 
0.4216725993051090 -0.4070857590585922 -0.4101903241170591 
0.2225477291047202 -0.2329738690596536 -0.3344544512355938 
0.1369881874678988 -0.2007745978694165 -0.1564860843942520 
0.1499298568425891 -0.3474063266468229 -0.1354968859205154 
0.4083810754012177 -0.3889812837308636 -0.3911610941416207 
0.2131540961594827 -0.2118963439397379 -0.2191882637062871 
-0.07447106158901702 -0.3786473307604306 0.08293309766278590 
-0.002479936053489500 -0.1451123773908018 -0.2155576081169310 
0.3651152171675913 -0.3531802057278476 -0.3484697357736530 
0.06758734717716178 -0.1437703100739980 -0.2957196066416936 
0.08722712410555650 -0.1806679330026950 -0.2456099555487515 
0.1665915827855128 -0.3603200618781025 -0.1534051653491274 
0.2826787958050367 -0.2688925929764280 -0.3788191842087725 
0.2855962411130126 -0.1998634902202190 -0.2020216353558600 
0.01834051873852225 -0.1354301243187755 -0.2120419902821813 
0.001073676973792352 0.01937418893028224 -0.4296211379466331 
0.3346636777000082 -0.3188735423155784 -0.3171789986434880 
0.3346636777000082 -0.3188735423155784 -0.3171789986434880 
0.08627065557624639 -0.2271498312182627 -0.1895042457743068 
0.05119722093863930 -0.3356340683614953 -0.03467184204144238 
-0.01034783899826652 -0.1750041402414331 -0.1608905889224556 
0.1130942567495248 -0.2459510659867026 -0.2065508707502000 
0.3075214536645493 -0.2991231544771159 -0.2947011831673160 
-0.2304918673536889 0.2494433471361865 -0.4160124199692511 
0.3881970178347444 -0.3692294343230084 -0.3605851694000186 
0.3983235536375434 -0.3940309786765121 -0.3797395455089433 
-0.3558881180403747 -0.08021747760887767 0.09069582081587130 
0.3516892084004630 -0.3830329937174845 -0.3824547241397280 
-0.3558881180403747 -0.08021747760887767 0.09069582081587130 
0.03492059054446008 -0.1821081359879195 -0.2118053523553843 
-0.2373440859922420 0.1777633310033632 -0.2094809435472783 
-0.3558881180403747 -0.08021747760887767 0.09069582081587130 
-0.1166656327710556 -0.1381302977419001 -0.04297236276872010 
-0.3300292509713028 -0.3815478738246989 0.3913029768001246 
0.05541366062856614 -0.1242357063978183 -0.2656274255267636 
-0.3155931662421492 0.07677850897066893 -0.02892863215125931 
-0.05291674648514896 -0.09527612258952249 -0.1421353509985856 
0.2133000955724630 -0.2159580023393310 -0.3149168059120492 
-0.1079599367243036 0.03252506354263975 -0.2438643428172351 
-0.3155931662421492 0.07677850897066893 -0.02892863215125931 
-0.1148421111121742 -0.001232916759832190 -0.1723358948379925 
0.1517116892313949 -0.2423865807119474 -0.2300006200894534 
-0.3155931662421492 0.07677850897066893 -0.02892863215125931 
-0.03901971003529248 -0.2382482131863883 -0.05339221087340879 
-0.2598247509417657 -0.3399380770814983 0.3783901567973016 
-0.2598247509417657 -0.3399380770814983 0.3783901567973016 
-0.1000528874482257 -0.1815882880507203 -0.06343145686869234 
0.06244554144629822 -0.2488341722036301 -0.1612753253337947 
-0.1753853236811845 -0.3004763338407647 0.1296718320786100 
0.1200155974604812 -0.2716332806838982 -0.1856552264108370 
0.01603121481274563 -0.1694480485806596 -0.1920673826787212 
-0.4077447109440432 -0.07867700216236200 0.1150164221470048 
0.03246900268305340 -0.2098917974792049 -0.1848745835932894 
0.008633213802092142 -0.2353512369461310 -0.1730826721093980 
-0.02549511399372794 -0.2618422458318583 -0.08842626766949590 
-0.02006496968749131 -0.1500231703275704 -0.1509451981656385 
-0.05631563956777780 -0.1149143079611366 -0.08450027660788924 
0.01164552513748492 -0.1862420936512048 -0.1872414236266161 
-0.1671140766891185 -0.1602235755416187 0.004407432790445557 
-0.3936936416608683 -0.3935786189505219 0.4070727080034950 
-0.1559079131901833 -0.06949730672972065 -0.05048654532419430 
-0.05315214826775953 -0.1290793204003937 -0.08035704655089342 
-0.2804525404233066 -0.2422800795505871 0.3029448982993551 
-0.1623675885915430 -0.09725762068234547 -0.02497765882864694 
-0.2804525404233066 -0.2422800795505871 0.3029448982993551 
0.04708054538072032 -0.2940062003656956 -0.02261421385736552 
-0.2896316325877777 0.01582660007611795 0.02123740056185167 
-0.1702973388054140 0.004124813136426543 -0.1522324167795356 
-0.005625195520402786 -0.2446708009496040 -0.05741977648251414 
0.03113782985941160 -0.1310080929630716 -0.1839915220670812 
0.06146165148096498 -0.2701701055749086 -0.04427425934977249 
-0.1148254750570642 -0.08245984917050365 -0.09911608686561321 
-0.1200707675567512 -0.09711218461303050 -0.1174848558863812 
0.09016872039836034 -0.3226998286269590 -0.09978893105044585 
-0.03807987171099849 -0.1481163072839013 -0.1536201849128836 
-0.1318074297034766 -0.02570285497904009 -0.1608481377489257 
-0.2036932887865061 -0.2055184217259110 0.1248615557443268 
-0.2804525404233066 -0.2422800795505871 0.3029448982993551 
-0.3069146654676649 0.09482368975635999 -0.06470888048182499 
-0.06772937447889547 -0.06668501268252178 -0.1720699925888789 
0.09804984423488354 -0.2122104671246810 -0.2045993723704739 
-0.3069146654676649 0.09482368975635999 -0.06470888048182499 
-0.3069146654676649 0.09482368975635999 -0.06470888048182499 
-0.2335198314482290 -0.2990209503516335 0.3199119207286461 
-0.2335198314482290 -0.2990209503516335 0.3199119207286461 
-0.2335198314482290 -0.2990209503516335 0.3199119207286461 
-0.04165988082123270 -0.1646272005120859 -0.1412565847150906 
-0.01347386339635891 -0.2097652451016598 -0.1517575997904578 
-0.2318301764761714 0.06387724413800829 -0.2263651704075669 
-0.1013321475760624 -0.08414756592768838 -0.2034985077156079 
-0.06969084840221680 -0.1808869772231639 -0.06870647740121132 
0.04158282836515328 -0.2038766894501493 -0.1897017871109974 
-0.06382953889528527 -0.3217326555987332 0.1197750622776837 
-0.3838841581326660 -0.3808291461347265 0.4185409695414651 
-0.1050315444767449 -0.1748888190034448 -0.05944820283878383 
-0.2231009370084253 -0.1250027091856145 0.02224519632999560 
-0.1534337960463426 -0.2130496338285394 0.01004820010999564 
0.04841852358837706 -0.2183410447512744 -0.1354813011216717 
-0.1822989380623881 -0.1083060367610020 -0.04238237829928970 
-0.3680272922791453 -0.3328494546169639 0.3043156772198928 
-0.04528534825981367 -0.2418538958311302 -0.05192499102987248 
-0.1784622436640373 -0.1480310447226372 0.05306587063423253 
-0.04708758722511518 -0.09509457283698278 -0.1081203724086173 
-0.1812952113497892 0.03068388690375949 -0.1849301015999940 
-0.3328324201557978 0.03604091786334888 0.01426207122668182 
-0.09354917265248760 -0.08243085558191408 -0.1130090020552704 
-0.3328324201557978 0.03604091786334888 0.01426207122668182 
-0.3328324201557978 0.03604091786334888 0.01426207122668182 
0.3416453464977889 -0.3223635433553148 -0.3311786678179975 
0.3416453464977889 -0.3223635433553148 -0.3311786678179975 
0.005905642822693884 -0.3113910308714528 0.006562981817749617 
0.005905642822693884 -0.3113910308714528 0.006562981817749617 
0.4033758433852366 -0.2980601315992300 -0.3914934169989001 
0.1745863074341577 -0.2434536058692589 -0.2556089022789217 
0.3642935748395833 -0.4070413240714011 -0.3564350664793671 
-0.01947251556224568 0.02628397774149362 -0.3482537323987454 
0.3990270334573247 -0.3729424955099001 -0.3774899182063575 
0.4164133702362826 -0.3791220902914246 -0.3824162335738120 
0.2955206800882224 -0.2883201454522970 -0.2892122985344641 
0.2018486587394142 -0.1963621606081032 -0.1943962820748937 
-0.03862883173311317 -0.06050158208711020 -0.1791185130615729 
0.2018486587394142 -0.1963621606081032 -0.1943962820748937 
0.04437439646247290 -0.1263897607767014 -0.2506235385821204 
0.2018486587394142 -0.1963621606081032 -0.1943962820748937 
0.2018486587394142 -0.1963621606081032 -0.1943962820748937 
0.2942630077545374 -0.2909288466390505 -0.2882571117951753 
0.1787714116430869 -0.2450187369644429 -0.2416523307127347 
0.02559240796779164 -0.1320571271427479 -0.2235392490326633 
0.2018486587394142 -0.1963621606081032 -0.1943962820748937 
0.2018486587394142 -0.1963621606081032 -0.1943962820748937 
-0.04352394059954265 -0.2922028545017419 0.05154162709366059 
-0.2734826720847751 -0.1696091333329481 0.09633531742632943 
-0.1980678340479123 -0.3165824280623686 0.2075898362048245 
-0.1381687355760894 -0.3049385992050333 0.1464034232734222 
0.03300913314004120 -0.2203177405161301 -0.1605667238576780 
0.2000927150967651 -0.2273215624080602 -0.3193860351562197 
0.2155510444262428 -0.3148050461624234 -0.2045612708940025 
0.2330156022935203 -0.2042210681159961 -0.3350302949886904 
0.3503762380215132 -0.2737320747417268 -0.3399811337107417 
0.3503762380215132 -0.2737320747417268 -0.3399811337107417 
-0.2228141893367804 0.2437773536054607 -0.2339445755288573 
-0.04380002822556467 -0.1504203419469159 -0.1795369967290292 
-0.1016221784556637 -0.1904520672100032 -0.06501321099757283 
-0.07250487344566076 -0.08374142026367058 -0.1501069976470183 
0.03528769698202318 -0.1579167282578268 -0.1741986267943482 
-0.2228141893367804 0.2437773536054607 -0.2339445755288573 
-0.2228141893367804 0.2437773536054607 -0.2339445755288573 
0.02437186010192100 -0.06329087641847607 -0.3175442072944277 
-0.2603654552800910 -0.02600527532789741 0.05276801504319960 
-0.2228141893367804 0.2437773536054607 -0.2339445755288573 
-0.2228141893367804 0.2437773536054607 -0.2339445755288573 
-0.1097643920987573 -0.1032497543063470 -0.1413846554655660 
-0.3315133852619197 -0.3822771751703916 0.3916585366048476 
-0.3915645577398488 -0.3247219301436756 0.4046193806343993 
-0.4123459010659057 -0.3805557148647432 0.4264767124482635 
-0.3925553187041485 -0.3072420102709779 0.4000696274612630 
0.04263909951700484 -0.3668109312422063 -0.03337832932256950 
-0.1740412811267497 -0.09108707249138018 -0.07043203556477093 
-0.3750461277545070 -0.3426778136183848 0.3851354255343883 
0.04821291728907361 -0.2988010766379373 -0.02213994599407350 
-0.2205755401637624 0.1291363455341463 -0.2500752059603862 
-0.2979167212234016 -0.2957879042612556 0.3394806056152565 
-0.2979167212234016 -0.2957879042612556 0.3394806056152565 
-0.3811424483198954 -0.3910204186164082 0.4222004115020817 
-0.1698290692391899 -0.4073631579452735 0.2126369997560577 
-0.3873829003385477 -0.3624305814890682 0.4000729180888287 
-0.2556383067699038 -0.02367211039216120 -0.05742934898700998 
-0.1761071305838568 -0.01864856947446756 -0.1463864692618734 
-0.1452772051091402 0.02246836855105995 -0.2254186196948625 
-0.1208455552811217 -0.01978581169553244 -0.2537404201844117 
-0.1827119241072568 0.1310051191145547 -0.2628803882315342 
-0.1039141639469112 -0.01790200000161089 -0.2062741618827429 
0.1212352411399401 -0.2631690066869415 -0.2287734762606120 
0.06073158081183588 -0.1802632542042855 -0.2169864098825121 
0.2050757629719466 -0.2458584598249938 -0.3675219570205975 
-0.2408963875776508 -0.05136020242881143 -0.02927875628812245 
-0.3953924107560146 0.2372138356024303 -0.2015443142617292 
-0.1462893943084373 0.1030481565722469 -0.2724651525242345 
-0.3734910124511063 -0.3965609759239668 0.4372517120391738 
-0.05952941186642126 -0.02760102155225171 -0.2029527469008526 
0.1506656444185060 -0.2017502471050719 -0.2700205179013174 
-0.05970478611788065 -0.1000216507451950 -0.1449540923297278 
-0.2785218338077977 0.04422451699038599 0.02158608662242988 
-0.05998989252267334 -0.02987472582237367 -0.2513560261032263 
-0.2871821947438312 0.2966513477600428 -0.4214146874379271 
0.01877657955621924 -0.1636647510497035 -0.1852121360048034 
0.006326918448676284 -0.2072736363714961 -0.1564089185226643 
0.1506194434824473 -0.2356949975852583 -0.2751944949094842 
0.1153226415323136 -0.08756604737458080 -0.3080684060052187 
-0.2581954394257823 -0.002401635877787333 -0.09151169424472183 
-0.05593186559831625 -0.1909912853247273 -0.07676207999503053 
0.05069505761405455 -0.2068299708543931 -0.1665784162453616 
0.01661268696023461 0.02487563401495038 -0.3699412911970418 
0.4303910866432396 -0.3945884498079666 -0.3985567207435256 
-0.1513564054447426 -0.08802180983666777 -0.1073924673755997 
-0.1389764148218780 -0.1345995125718248 -0.1039137278238216 
-0.06387705157578544 -0.1773561012931665 -0.1071748363200110 
-0.3401593440341836 0.08487498795990753 -0.03402839810635339 
0.04652885199737759 -0.2285658359549376 -0.1381388382332851 
-0.3401593440341836 0.08487498795990753 -0.03402839810635339 
-0.2773192819113418 -0.3344967103049135 0.3739347248055625 
-0.2773192819113418 -0.3344967103049135 0.3739347248055625 
-0.4063851746815940 0.05489856655875487 -0.02483273150020363 
-0.08381893700309344 0.03379792081821591 -0.2890175347252821 
0.08224168837601536 -0.1304188921234522 -0.3127719043857918 
0.2506562128183388 -0.2875052729305853 -0.3215066014643038 
0.01301359884540444 -0.2026162552182726 -0.1468730962544262 
-0.3630504326993725 -0.3954839042299047 0.4222274289266845 
-0.1043854655731400 -0.01996274085108947 -0.2157642959289307 
-0.3837128182998968 0.06982349432349444 -0.03886706527857686 
-0.3547899461785449 0.1673417352765192 -0.1376619744894535 
-0.06548287648594939 -0.05239907358923480 -0.1995969216494068 
-0.2014714173371377 -0.1852758740573076 0.06556684074633393 
-0.3545953552968301 0.05402644726963913 -0.01876489225451104 
-0.04042413981804607 -0.1317000965486707 -0.1125406028559661 
-0.1004204763300082 -0.1151152669446697 -0.07813610405532984 
-0.09574252339609071 -0.1271666127341432 -0.04138363396587483 
-0.3178914596639250 -0.3965049776110432 0.4283094152395841 
-0.1664884040762537 -0.06942643587996199 -0.1705973220836120 
-0.1807782803692871 -0.02473978919970795 -0.1807980254526770 
-0.02915734422061546 -0.2129804027031327 -0.1275971421633675 
0.4100994675466834 -0.3985783170666871 -0.3919785281523779 
-0.02449817763070985 -0.1690556383762407 -0.1658024218070924 
-0.3920771256053586 -0.3988135989421799 0.4106483059527994 
-0.2048840342345052 0.001747691399589737 -0.1448695914197536 
-0.03320381917311098 -0.1330457292189461 -0.1709609875384563 
0.006820340507916618 -0.07809206273362068 -0.2035090519788056 
0.1143156194077563 -0.2839649927346387 -0.1887963959277040 
-0.3006088716621463 0.06068525370183667 -0.1376817894841813 
-0.1765952521314448 0.1855814752580720 -0.3769745458571651 
0.4449421122499975 -0.4324224298515513 -0.4162704385820257 
0.1507834103208365 -0.3162784018888883 -0.1848763589148499 
-0.1402181446103146 0.06403406476958814 -0.2566287815291363 
-0.2563747260417172 0.05022092004158321 -0.1387043327780287 
-0.08922254424219701 0.1041458107651631 -0.3345284928442727 
0.07424366417128747 -0.2075316241766553 -0.2112358294379991 
-0.03480160893860087 -0.07277159771649834 -0.2213643684475893 
-0.1187481634434790 -0.008281382340322047 -0.2177896645347061 
-0.01420491512386751 -0.05547273957805558 -0.2902247023017123 
-0.2943362541521948 0.1818302076005326 -0.1976850386577722 
-0.005628809418926251 -0.1005606076785867 -0.2362372058156031 
-0.1481616438444015 0.04097917426577472 -0.1813045135801014 
0.4153854275693620 -0.4046228205987020 -0.3721736800805944 
-0.07369697313008987 -0.05542756253547006 -0.2183799527900832 
-0.005806314472263215 0.01624233803925037 -0.3353672606297761 
-0.1668031180877845 0.01021159812859740 -0.1737731755546743 
-0.01699698928391396 0.03285585642470423 -0.3060073470353417 
-0.01699698928391396 0.03285585642470423 -0.3060073470353417 
-0.3864660314796030 0.3977504080764092 -0.3350171451409220 
0.4788422845301252 -0.4186376051416257 -0.3527082249564251 
0.1061593581146490 -0.08877566079253073 -0.2963374143334816 
0.03437225893238873 -0.02085132408797017 -0.2751770656265938 
0.3554275294749974 -0.3353961063387085 -0.2911930687311871 
-0.02606277920869748 -0.1654163573413190 -0.1330698184820203 
0.1080224219207884 -0.1722852346697773 -0.2633945513731246 
0.3554275294749974 -0.3353961063387085 -0.2911930687311871 
0.006559226787521195 -0.3733664305201032 0.02761311249472500 
0.2214078162078654 -0.3406539834338204 -0.1725659418688797 
0.3511561535276453 -0.3345293338421608 -0.3155768293046294 
0.3915073469666614 -0.3672623265705127 -0.3336924212965304 
0.1695096021824579 -0.2156617719090954 -0.2740561937876008 
-0.01470103899640386 -0.1791959843020601 -0.1242857973355134 
-0.3233850773872504 0.05798875386893226 -0.0007060687341199240 
-0.3648732284440962 -0.1642268380264660 0.2224502254916528 
-0.02179816902497299 -0.1461603571667287 -0.1732145605118418 
-0.05031328760283552 -0.1124068976014790 -0.1706462247500314 
-0.2733411175127707 -0.3051719110460449 0.3124381833771546 
-0.09426325792342406 0.03319437411698875 -0.2475098746169215 
-0.2733411175127707 -0.3051719110460449 0.3124381833771546 
-0.3393091766703414 -0.3462811521770303 0.3608307664232422 
0.4379444143963815 -0.4133491301971445 -0.3897747601343050 
0.3732867604301418 -0.3626767793320118 -0.3534244208715274 
0.004285621929917030 -0.07709379966213963 -0.2702165828364219 
0.05153822893089068 -0.1745425274277275 -0.2321563246203907 
0.005450371069779018 -0.2098556180756916 -0.09850493042547488 
0.1079555908953330 -0.1910276728408330 -0.2193320151289702 
0.3669520847809534 -0.3521762040189951 -0.3561320669557737 
-0.03996158731684172 -0.08178658332214425 -0.1805816000718793 
0.009172347008263578 -0.1220539801128008 -0.1962155575756716 
0.07015028214560505 -0.2565194905759908 -0.1365350604701650 
0.2920604437368529 -0.2670868791774096 -0.2657553930799059 
0.05567802839641529 -0.2210202849992466 -0.2056807453817248 
0.002925813519482580 -0.2677996077908242 0.01639577373341212 
-0.1788716712762100 -0.02821220051554618 -0.01494822021048002 
0.1261691862520952 -0.2079964374772337 -0.2585014384810003 
0.1527220594265632 -0.1138593108762785 -0.2973121888335552 
0.2363040986296260 -0.2228047443963791 -0.3423143813052256 
0.2920604437368529 -0.2670868791774096 -0.2657553930799059 
0.2920604437368529 -0.2670868791774096 -0.2657553930799059 
0.1987036970099155 -0.2310195380991896 -0.2341865384848859 
0.2455591710628021 -0.2763012558656591 -0.3012492216660115 
0.2629800363235433 -0.2558443856775338 -0.2484283800619141 
0.3409495065068136 -0.3493553472728206 -0.3424625228757473 
0.2629800363235433 -0.2558443856775338 -0.2484283800619141 
0.07006617431504054 -0.2231998142961243 -0.1831240810645934 
0.2964261505956034 -0.2686205298290412 -0.2668679840353064 
0.2629800363235433 -0.2558443856775338 -0.2484283800619141 
0.2818100768013614 -0.2627834295085507 -0.2618813660628474 
0.02714908868806927 -0.1385158508788466 -0.2326169025121142 
0.07516002931979487 -0.06743061833489189 -0.06883358801594519 
-0.03280973025299780 -0.2495988907545874 0.1252264448715468 
0.04103489546286842 -0.1744155250144207 -0.1659781555074480 
0.03715842786004702 -0.2340894408392898 -0.1500355879854662 
0.1117259875846840 -0.3832665912234527 -0.05838290816012419 
0.3006401172791795 -0.2697224733395676 -0.2753343520637808 
0.3006401172791795 -0.2697224733395676 -0.2753343520637808 
-0.2314244546291722 -0.07553043135083520 -0.01684796516330182 
-0.2926335231670038 -0.1596294188326965 0.1349136018769843 
-0.01904117050724402 0.04487868611403784 -0.2800475706637364 
-0.3861993893046738 0.3943576769383880 -0.3669234625286117 
-0.3851195077370887 0.3932221115998807 -0.3683817033627728 
-0.3897987752221728 0.4051400235806910 -0.3701271911023321 
-0.4424362252912188 0.4612502322396737 -0.3929670592717503 
-0.2058147767911990 -0.1549639785778806 0.05705923639392865 
-0.04486838513754954 -0.1623257650565085 -0.1547170048480699 
0.01237218121976643 -0.1794089865496225 -0.1126612422213137 
-0.3688290433272851 0.4002944408488972 -0.3807080800007572 
-0.3688290433272851 0.4002944408488972 -0.3807080800007572 
0.001845157003731683 -0.2215213568088119 -0.1060676902741588 
0.2334943855322221 -0.2560952360639673 -0.3116487682602147 
-0.1115061350042129 0.1280926339285426 -0.3723765745483068 
-0.3480460530767565 0.2748349490921299 -0.2338729106847705 
0.1842249660757960 -0.2456106185556352 -0.2469187699284025 
-0.07335544357194676 -0.2559581557771445 -0.001369568925400863 
-0.05695193159713318 0.01020486706971272 -0.2168240951670678 
-0.3155053073231691 0.3302305964605046 -0.3051143738869493 
-0.3155053073231691 0.3302305964605046 -0.3051143738869493 
-0.3923769846060477 0.4044652302998247 -0.3066261055380706 
-0.1259375546789909 -0.06300231941277461 -0.1954229297182164 
-0.3387224582936675 0.3594798455676432 -0.2847607892636920 
0.1219768471430794 -0.2160552360936402 -0.2754696622991370 
0.1733656221265131 -0.1622817467841166 -0.3523475690916677 
-0.3387224582936675 0.3594798455676432 -0.2847607892636920 
0.3532512205204059 -0.3154848678652528 -0.3239358640255967 
0.3532512205204059 -0.3154848678652528 -0.3239358640255967 
-0.1374107851661732 -0.1644462453358790 0.02197969930053261 
-0.02898315585639612 -0.1794037637099610 -0.1148003363065228 
0.08134672371831718 -0.2734809672785419 0.05670892431354625 
0.01398357398103361 -0.08745363687043374 -0.2948798675749234 
-0.1963565204547642 0.1096165124572321 -0.2718975360780477 
-0.1021412481925280 -0.04322265293846482 -0.2058311837634641 
0.2597983078012862 -0.2365657660176816 -0.3649311030957378 
-0.06877529051398296 0.1008338815810734 -0.3217026655729434 
0.1758522793133994 -0.1490192259164836 -0.3648488673302400 
0.04950352788356070 -0.009117983462997970 -0.3411995547693164 
-0.008478422984407468 -0.07314828466993692 -0.2570178065556094 
-0.2141285091928639 0.2329649783953670 -0.2168670552862070 
-0.4261083783078034 0.01640518977985268 0.03164418131284461 
0.03657459795457527 -0.1910888061344371 -0.1896436674316379 
-0.3723545708235748 0.3967580382755284 -0.3413817961798843 
0.01275193799024529 0.01276246576522636 -0.3417074846103485 
-0.3619306268027994 0.3758214736625850 -0.3226645189817083 
-0.3672248841103011 0.3116750246935207 -0.3313885014121403 
-0.3734290372617301 0.4211494187839094 -0.3138503208453944 
-0.03329795731300949 0.06006318773527346 -0.3672056484369417 
-0.1339453514456261 -0.2079292919058854 -0.005659640403148531 
-0.3608191176624303 -0.09463320699506661 0.1270318238061539 
-0.2237938072098572 -0.04103301530706168 -0.09917735514134628 
-0.2472421958804061 -0.1194338301175858 0.08961507052263887 
0.08743475606239565 -0.06462274494180366 -0.3364710607409813 
0.06396840574205843 -0.1461261007814706 -0.2230063540655779 
-0.06264836648026435 -0.1018156526458757 -0.2125298803433986 
-0.3640396194967147 0.1979885997925177 -0.1129472625946329 
0.02766693305582456 -0.08097701925236166 -0.3143791110880689 
0.003864573796200731 -0.02914302882745964 -0.3330452503123303 
-0.1454463061901019 -0.1460173093650211 -0.1182560539265704 
0.1328069924234359 -0.2267728952920964 -0.2957097998466010 
-0.1467801841941081 0.1587298353925435 -0.3584343415166587 
-0.2126059110450032 0.2241845863047225 -0.3639797733900355 
-0.06653496363659665 -0.007601648991476256 -0.2558125052887971 
-0.09213084697022808 -0.1316190293287320 -0.1489335166313718 
-0.1294923913508093 -0.03567014059251891 -0.1504983426229251 
-0.2403358636734848 0.2594388539838134 -0.3748209528135656 
-0.2403358636734848 0.2594388539838134 -0.3748209528135656 
-0.1322236485489482 -0.05179106680822720 -0.1830221469437154 
-0.4042268061472016 0.4145403313265121 -0.3668716783282027 
0.05643372170566410 -0.2116567134154753 -0.1840806098240562 
-0.4352013368791904 0.4493509797844904 -0.4262460591196777 
-0.1537153062825052 -0.04629499468297050 -0.1683550182769499 
-0.05981641555957053 -0.08811608265004488 -0.2173567819804881 
-0.02752947260599628 -0.3598969822201524 0.04013970433429029 
-0.02752947260599628 -0.3598969822201524 0.04013970433429029 
0.06080253873193560 -0.1112016606392184 -0.2094903148318481 
0.4084326646624567 -0.3288315448313628 -0.3992535961097243 
0.02330845895396413 -0.1249752086477965 -0.2679171626162434 
0 0 0 
0 0 0 
0.3079136674819409 -0.3051464692845272 -0.3038674514872127 
-0.1983650243854735 0.09014237840051664 -0.2759609477796323 
-0.2885323781930777 0.1343403245695962 -0.2332296119519156 
-0.1645653034830233 -0.2718843804021029 0.06440538233576855 
-0.3150564682361446 0.3202474329457248 -0.3995688923336442 
-0.3873931368678708 0.3957896587780269 -0.3817408534700716 
-0.01555756218788015 -0.1284995507681734 -0.2254773022705302 
0.1002110269468933 -0.1882660379392547 -0.2481164121490433 
-0.2664673882016302 0.1330206323469261 -0.2241344994530109 
-0.3720617525704643 0.1984395314247913 -0.1781834830990663 
-0.4311172519563032 0.4530924775603053 -0.4357150341329915 
-0.01732442071568274 -0.1686391408124735 -0.1279001869188716 
-0.01706654314030150 -0.1454300272243723 -0.1997304470235547 
0.3015523999676261 -0.2876534728187261 -0.3795084326768484 
-0.03782818902872946 -0.1840583143551308 -0.1586732149666817 
0.1352771700411939 -0.1247609570963570 -0.3857061190447923 
-0.02113696241309964 0.03452309957159110 -0.3641642483138681 
-0.06798829804565193 0.07187552748755657 -0.3714855646350135 
0.07078511604760772 -0.2612663328269075 -0.1697841356422898 
0.4384940879671791 -0.4349590493833355 -0.3699574437181118 
-0.4400341008403291 0.2212780429266475 -0.1924534872410521 
0.006395142226053907 -0.1115208855140673 -0.2267274169404427 
-0.09484663349743140 -0.08751321520925756 -0.1751020151538372 
0.1037390908912497 -0.08905354924659306 -0.3216227482406407 
0.06432426703747869 -0.1310685299328677 -0.2574876101093221 
-0.3550501925541896 0.008752311867611422 0.02416556250998527 
-0.3539711645408672 0.3910670559453763 -0.3594563375188923 
0.1282262995746120 -0.3166499627197413 -0.1115894811538125 
0.1282262995746120 -0.3166499627197413 -0.1115894811538125 
0.006399030903120961 -0.3113700390729666 0.01158642269472245 
-0.07853722899540214 -0.3333305429181734 0.09070924316016432 
0.1657908743951418 -0.3339214198725806 -0.1466181753113894 
0.4280302310502777 -0.3255108225428514 -0.4143634238849240 
0.4099757802404422 -0.3918798916050083 -0.4033951790235353 
-0.001372847177749075 -0.002776949108787489 0.004648475495505310 
0 0 0 
0.2048878592013855 -0.2257013263157264 -0.2574255098366310 
0.2868392474467119 -0.3400481604282498 -0.3360993394845709 
0.4099757802404422 -0.3918798916050083 -0.4033951790235353 
0.01965470529906253 -0.2532873961770247 -0.08554207491049505 
0.08313367175877410 -0.2140987822889707 -0.1866917451873811 
0.3293964507089358 -0.3031316222209060 -0.3166053524441503 
-0.04688725105811688 -0.2812233896095510 -0.06947086990321949 
-0.002674345865562033 -0.1945352057379655 -0.1258997176584110 
0.3742585017051762 -0.3698412031840656 -0.3586684368381339 
0.4049574815310363 -0.3899897973010564 -0.3269001347793962 
-0.3939262999042270 0.4063473535963867 -0.3927335364933957 
-0.3885889583210556 0.3941429264060593 -0.3756441753849854 
-0.3885889583210556 0.3941429264060593 -0.3756441753849854 
-0.1455667317653582 -0.01584071250693357 -0.2256180573395437 
0.2223752765447963 -0.3107888781525683 -0.2444170615107535 
-0.3566667406998016 0.3635062329092046 -0.3265470107679602 
-0.01586287266472607 -0.1685300795411728 -0.1409385528236433 
-0.3253141224685806 0.3369280486940179 -0.3016244855520000 
-0.4233596762908429 -0.3220886507737304 0.3738778799208851 
-0.4146526708027222 -0.2975357683857637 0.4306578869275559 
-0.2002697808256796 0.2032620629406566 -0.3169652947047777 
-0.4145269244741129 0.4186639484235276 -0.3742223792454223 
-0.1235331757365590 -0.1186594823487565 -0.08567086609793075 
-0.3967695499975897 0.4080039871349926 -0.3877449313872675 
-0.06404666615922326 -0.3312185920816674 0.08010964225016455 
-0.1658010098430337 -0.1728680751819939 -0.02155980007000970 
-0.3561292205675119 -0.3735624322101535 0.4077874625388628 
-0.3220229665286261 -0.1441243287400927 0.1618033616378216 
-0.2803822036741153 -0.1119288338695037 0.07992679940735414 
-0.3817817173834014 -0.1264059113058979 0.1412566332693606 
-0.3656166537083820 -0.1320011451419113 0.1517050289059742 
-0.02376229164613187 -0.2290078252664859 -0.1106826350020075 
0.05429405003319111 -0.2788293521775530 -0.1374854456471464 
-0.05793354595598859 -0.3705261710426058 0.08113317745260422 
-0.2411936755319585 -0.3516037913455518 0.2661484448591558 
0.1589415746793924 -0.3670351901513347 -0.1296428296577969 
-0.3687575415728289 -0.3547390844479945 0.3899631184006300 
-0.3582040666432846 -0.3511251236303589 0.3796973874838625 
-0.3480563554821925 -0.3469435540696973 0.3885882598276926 
-0.01403045564670537 -0.08396224168787680 -0.2298907043425393 
-0.3480563554821925 -0.3469435540696973 0.3885882598276926 
-0.3758296931863083 -0.05621034017597799 0.08969394440011330 
-0.2061955521159783 -0.07441352605364080 -0.07514410448470549 
-0.04487446557167207 -0.09034800837269094 -0.1817300279814537 
-0.05705334448447491 0.002542727763210842 -0.3028235874824720 
-0.3788978832852200 0.4115220522454213 -0.3986218740246837 
-0.07345921014200157 -0.2675475882634123 -0.01656013585038977 
-0.3585208737366649 -0.1560157122367833 0.1612939230630460 
-0.1803264921339196 0.03376135368543436 -0.1491932195188077 
-0.4326654261049540 0.4570594320829238 -0.4117996418933417 
-0.2743005748587863 -0.2848061615257649 0.3014042394494901 
-0.2743005748587863 -0.2848061615257649 0.3014042394494901 
-0.2512608739750412 0.09257035596680330 -0.1923266049086419 
0.1391346847307919 -0.2389082096844918 -0.2139270061280333 
-0.1608607264860814 0.09197106795642149 -0.2467704033762201 
0.09889237430596369 -0.1412340467280421 -0.2487816622827876 
-0.2743005748587863 -0.2848061615257649 0.3014042394494901 
-0.3995674729015170 -0.09290427380423188 0.2249523184669701 
-0.3398225100148851 -0.3765880291315100 0.3804294595061060 
-0.3398225100148851 -0.3765880291315100 0.3804294595061060 
-0.3367102729843392 -0.3751810538148287 0.3787349385685678 
0 0 0 
0.3053874193656935 -0.2989292051336897 -0.3027968910197164 
0.2102899540024739 -0.2659497518984006 -0.2814023388762315 
0.3053874193656935 -0.2989292051336897 -0.3027968910197164 
0.3053874193656935 -0.2989292051336897 -0.3027968910197164 
0.3053874193656935 -0.2989292051336897 -0.3027968910197164 
0.1332791480372123 -0.3189579136607409 -0.1182735967400414 
-0.03724269077811267 -0.1518200304477121 -0.1349193344427074 
0.2946149626554195 -0.2882151527145849 -0.2900604038413689 
-0.07815990183162426 -0.1769795638606128 -0.04588651296572966 
0.2675150041463712 -0.2543219642197416 -0.2653608066855835 
0.1089294289572284 -0.2564462150417766 -0.2030984807225150 
-0.07687548707510447 -0.04582093564468048 -0.2192140937151817 
0.3983453187898601 -0.3951485034950233 -0.3924982607253602 
0.3239885167637914 -0.3528325064718203 -0.3922807316873069 
-0.09755033651385240 -0.09881008830543400 -0.1790830434951895 
0.2923161363941251 -0.3753037496409516 -0.3005625081154356 
0.2030688796500155 -0.1974934895311145 -0.3410221009469795 
0.3988609302918015 -0.3956710720294640 -0.3934623544209467 
0.4096862595602898 -0.4084616396293672 -0.3792137624801188 
0.1482210931217591 -0.1423925248860604 -0.3470917583831185 
0.005006627781085836 0.02050060206364251 -0.3084218305888149 
0.04379448031132508 -0.1967952671204478 -0.2035702845285070 
0.1496209846692217 -0.2353746451850443 -0.2741317674609679 
0.03052250102271244 -0.02350934936570765 -0.2807168939298583 
0.03052250102271244 -0.02350934936570765 -0.2807168939298583 
0.04922747777327208 -0.1361711168332476 -0.1907024079819773 
0.03052250102271244 -0.02350934936570765 -0.2807168939298583 
0.3525909386694350 -0.3446693874964188 -0.2962189040538337 
0.2892456800876408 -0.2116678044927761 -0.1914899050717424 
0 0 0 
0.2892456800876408 -0.2116678044927761 -0.1914899050717424 
0 0 0 
0.2020698478104584 -0.3099469428182362 -0.2518756995174475 
0.2765874603161839 -0.3390518263194468 -0.3498246482217912 
0 0 0 
0.2511880376467425 -0.1886073438997135 -0.1720095626310676 
0.01373805605405701 -0.1850657637816582 -0.1902484908569120 
0.3972998808246001 -0.3972170196610705 -0.3957465341987414 
-0.1651665598239520 0.03867173995740668 -0.2077509473069264 
-0.07681879588654274 -0.07040696106730877 -0.2029310656905805 
-0.02513010026897146 0.03255555353108706 -0.3310538848386618 
-0.1117040658189587 -0.02015220989600017 -0.1593164320694724 
0.1257797796227992 -0.1684250300242096 -0.2297138081936150 
-0.2894399866535730 0.2950388677120983 -0.2700570080825526 
-0.2894399866535730 0.2950388677120983 -0.2700570080825526 
-0.3889134205815080 0.4315691199294686 -0.3868730670694915 
0.2074532834903699 -0.2656653827535062 -0.2723072525493340 
-0.2060995796721749 0.2102945901893684 -0.1928384531734952 
-0.04991978441631240 0.06427904618246007 -0.3057432218258001 
-0.2060995796721749 0.2102945901893684 -0.1928384531734952 
-0.2060995796721749 0.2102945901893684 -0.1928384531734952 
-0.2060995796721749 0.2102945901893684 -0.1928384531734952 
-0.2060995796721749 0.2102945901893684 -0.1928384531734952 
-0.2468973947049618 -0.2349614961594010 0.1590602113489678 
-0.3465050782519669 0.3608949982191870 -0.2553967282576125 
-0.3465050782519669 0.3608949982191870 -0.2553967282576125 
0.3746697255597102 -0.3701816080287096 -0.3683917693591045 
0.2943890624064182 -0.2909196061392104 -0.2924390958755777 
-0.03537295041970904 -0.2285403780403446 -0.08098479941332637 
0.2943890624064182 -0.2909196061392104 -0.2924390958755777 
0.1894864598754819 -0.2850990379815664 -0.1490415637229446 
-0.09567996697864112 0.1027239567179572 -0.3581882536792953 
0.3775965249032542 -0.3692286343968024 -0.3668626180474403 
0.2241757736465593 -0.2483846924094650 -0.2835730735594509 
0.4007093944249761 -0.3908279092393722 -0.3892614994522741 
0.3269492521948567 -0.3184896001707101 -0.4110312764095337 
0.0007946132645806859 -0.1707868828999982 -0.1249737832993633 
0.1431758364189653 -0.3209442521490542 -0.1830440269941288 
-0.1495511839813559 -0.1060501541850857 -0.08867199370755367 
0.1032511115934981 -0.3366478578326704 -0.09609635578446915 
0.1898347978024029 -0.3392508353566995 -0.1602984074859515 
0.1078985607811235 -0.2174999162167475 -0.2520103524905607 
-0.1871539423645515 0.02284919611327814 -0.1235655996637339 
-0.4071840806133606 -0.3704473412141597 0.4172595967065864 
0.06370242837341718 -0.2652630204164737 -0.1127354890330538 
-0.0009811557732337297 0.01376618786194525 -0.3615157898171487 
-0.09643752797757676 -0.08468022268351202 -0.1804752115132455 
0.1234642900875958 -0.2931523629972715 -0.1717270081813870 
-0.002178579805405888 -0.1430302646924952 -0.1566836234404715 
0.3261366705090097 -0.3187979998644212 -0.3113765556671423 
0.2484343273603553 -0.2292005583119537 -0.2936713641713666 
0.1952894382732412 -0.1888771369519317 -0.3102187458012612 
0.08543330604776868 -0.1735025808919326 -0.2718694049766487 
0.08217796351053654 -0.2197006700093160 -0.2134342808784702 
0.07322686716803208 -0.2081834068415982 -0.2115691097966072 
0.3525426094060953 -0.3453948911189083 -0.3401845933314032 
0.003514217820163323 -0.1550268198466873 -0.1851731492852753 
0.3574509244771776 -0.3481811998263458 -0.3399387232357672 
0 0 0 
0.3982672010171398 -0.3918843293552760 -0.3938895747198884 
0.07313913611244348 -0.2934663893818243 -0.01266217527354170 
0.09025264225635920 -0.1831917946564532 -0.2117600736960865 
0.3897734518187084 -0.3832688651381827 -0.3842225328554420 
-0.1224439861995790 -0.02894816945512707 -0.2329781770271246 
0.1716257428189124 -0.2981609052270717 -0.2334701520754726 
-0.005858946489851017 -0.1127977439158968 -0.2026279528522301 
0.3252819402047950 -0.3194625440829962 -0.3170348979229634 
0.3315877902966153 -0.3213281222908067 -0.3212739059482840 
0.3671467130036430 -0.3863947696753890 -0.3345003623921505 
0.3528671952855879 -0.3490746268999087 -0.3464488822932644 
0.2938487458524675 -0.2885979399414816 -0.2831159150909804 
0.2938487458524675 -0.2885979399414816 -0.2831159150909804 
0.3115360426129297 -0.2508604930837706 -0.2608895226394626 
-0.07762963129282176 -0.08486164478539480 -0.1910609353711410 
0.3115360426129297 -0.2508604930837706 -0.2608895226394626 
0.06537312497535233 -0.2577646480004951 -0.1183683360054674 
0.3115360426129297 -0.2508604930837706 -0.2608895226394626 
0.3565870155905773 -0.3350933125861659 -0.3329588689623580 
-0.1000609645774177 -0.2891357197075464 0.1580158832008757 
0.3302170558569258 -0.3023211815941527 -0.3222166517418187 
0.3302170558569258 -0.3023211815941527 -0.3222166517418187 
0.3302170558569258 -0.3023211815941527 -0.3222166517418187 
-0.07596307630927415 -0.05815573257519839 -0.1993099117777799 
0.2728845874535927 -0.3596471085770850 -0.2670867600602493 
-0.1370713308405309 -0.3030620428315403 0.2198079897436261 
0.3942123067744308 -0.3786947778788777 -0.3726811388848988 
0.3455123177432937 -0.3423143639110096 -0.3397886623709853 
0.3266235058531969 -0.3192064298449286 -0.3112257921709108 
0.3266235058531969 -0.3192064298449286 -0.3112257921709108 
0.2886475716554627 -0.2845881435227907 -0.2787239584054196 
0.1807480103578889 -0.2576593362371372 -0.2508772849455499 
0.007614341181987077 -0.1471150461702646 -0.03070285324434248 
0.1083108868377135 -0.1058922378489152 -0.2307358966868026 
0.3805997312593135 -0.3434643018320455 -0.3805096080291643 
0.1481303208112182 -0.2083376606848107 -0.2950894407699830 
-0.05642731370769122 -0.06992029696995956 -0.2240292079442752 
0.1899094304096727 -0.3773965446197247 -0.1602860216447389 
0.3439734657146505 -0.3366035330954584 -0.3375463194600857 
0.3072531218419972 -0.2927672557756244 -0.3018165027554836 
0.3092276607560749 -0.3017856637558605 -0.2968813728557330 
-0.08906904998017401 -0.1106802964349422 -0.1072773033451623 
0.2737137521769225 -0.2674673124986065 -0.2611012911654622 
0.3647881839237189 -0.3590978872955453 -0.3590156589039707 
0 0 0 
0.01240627946279766 -0.1937834113757066 -0.07325862272692524 
-0.06534894983928470 -0.08852379803757661 -0.1382680398172169 
0.1769506928716200 -0.2153733047919549 -0.2925228232735736 
0.1954638856317761 -0.3363475745976189 -0.1812146216060863 
-0.1894103493910458 -0.002941075662475577 -0.1750042355939008 
0.2246944202673810 -0.3834003888384279 -0.1992209846600166 
0.2377111303321628 -0.3578450202998352 -0.2231741353416443 
-0.06270268147512585 -0.1991950584777960 -0.1302204260543433 
0.1510715423054020 -0.3455665096805918 -0.1348493252911860 
0.09409092561885435 -0.2360463212177693 -0.2059193378118559 
-0.2725480175492097 -0.07214406072948629 -0.02628791594479301 
0.2490662741931329 -0.3541137474112923 -0.2454770004785455 
-0.4526827448247969 -0.4059379867780653 0.4780368158945122 
0.3235428803114205 -0.2983344889179846 -0.3080521210043872 
0.1575753053369922 -0.1912099922927862 -0.3141509949250632 
0.2819761418316903 -0.2530376702620597 -0.2607813728211416 
0.2819761418316903 -0.2530376702620597 -0.2607813728211416 
0.2819761418316903 -0.2530376702620597 -0.2607813728211416 
0.2819761418316903 -0.2530376702620597 -0.2607813728211416 
-0.09428041512196669 -0.3329295325743484 0.1081161065585977 
0.2739991171971126 -0.2320270040212307 -0.2716093419426491 
-0.06398277229288740 0.09119279607217576 -0.3288955416150206 
-0.04520738440558433 -0.1619399069648611 -0.1598869464542456 
0.1055528384888168 -0.2427244635807424 -0.2347102596457263 
0.1632738630951643 -0.3676511044569142 -0.1374121295209546 
-0.1341538703516327 0.02436011482591017 -0.2087326923714039 
0.4013749929739132 -0.3849934157182033 -0.3601923312970223 
0.04442031896506270 -0.2265838817527375 -0.1659797568423650 
0.03291860327329017 -0.1945211299164434 -0.1623613739523445 
0.3829556892574826 -0.3551867678103163 -0.3751010236782574 
0.3214530644679180 -0.3108883152108452 -0.3115725125331321 
0.3214530644679180 -0.3108883152108452 -0.3115725125331321 
-0.01806275464529004 -0.1298043477788709 -0.1573724767881595 
-0.06588161701546855 -0.1841833037525268 -0.08621833812839860 
-0.1320985415058827 -0.2236029583562489 0.03423247009725537 
-0.3491591067714652 -0.3279017728353481 0.3561479816048424 
-0.2896094008040008 -0.2786962671657789 0.2981508435811075 
-0.2637663346384212 -0.2605619890168550 0.2701882688112567 
-0.2637663346384212 -0.2605619890168550 0.2701882688112567 
-0.2637663346384212 -0.2605619890168550 0.2701882688112567 
0.04492234114176043 -0.3398058410751650 -0.03579166821053187 
-0.02685547716712814 -0.3524434317820952 0.03986099042304653 
0.07509114860399851 -0.2115631963773534 -0.2044886481398380 
-0.3587876734290071 -0.3367213629678379 0.3657707832945482 
-0.1308106661293271 -0.1152508781018221 -0.08708696002203245 
0.03436244060699337 -0.2677190130186082 -0.1096593288412692 
0.2796912609501582 -0.2995104754828502 -0.3167900711056916 
-0.05562931995716494 -0.2401479895375981 0.06904992990571285 
-0.2756709900514362 -0.08969550225371012 0.1148045605883200 
0.05755387888193551 -0.2476340759780557 -0.1135678140506905 
-0.3203151673957781 -0.2876576568143182 0.3371940856258102 
-0.3203151673957781 -0.2876576568143182 0.3371940856258102 
-0.01458897159947126 -0.2086760230125759 -0.09573402458900448 
-0.06514434783713505 -0.1845334776816397 -0.08617750383937806 
0.1660852135150870 -0.3607333915041822 -0.1562408973575714 
-0.2490501079098798 -0.1456995839045516 0.04829967096811091 
-0.1647493821749654 0.08550991773819733 -0.2750109148329188 
-0.0004659566904977761 -0.2955282891597463 0.01989789454632099 
-0.2847665599426974 -0.001930156199699305 -0.06361374171782515 
-0.3138664377104479 -0.2930054058816832 0.3340057499271376 
-0.3265567414448575 -0.2998349853755506 0.3545536801848420 
-0.3138664377104479 -0.2930054058816832 0.3340057499271376 
-0.3168003065435507 -0.3135478543913188 0.3414075520671864 
-0.3011761339760383 -0.2861758263878157 0.3134578196694332 
-0.03273792717747322 -0.1596122548965011 -0.1682695156609346 
-0.3048772399225384 -0.04448258639532441 -0.05994225227419720 
-0.2185790370608064 -0.1412306743884387 0.01514809677057009 
-0.3674159545160871 -0.08618019996699941 0.1090449187859453 
-0.3324244791110632 -0.3409198823948220 0.3693572844649395 
-0.04365137518446192 -0.2112386789922082 -0.1169492173882123 
-0.1910376823741159 -0.09323379024506970 -0.04255923735296414 
-0.4426875916380754 0.06185552300393459 -0.02203637465301766 
-0.3634853313137896 -0.3522493546371351 0.4015865098160060 
-0.3663930389515905 -0.3815428551804949 0.4030991410260517 
-0.3927250818742732 -0.3931379666018144 0.4076029763676771 
-0.4231446450265490 0.4605287284493402 -0.4410972902433407 
0.01357226869506598 -0.3958560884092929 -0.001597074790684838 
-0.008455885393497238 -0.2500363093302064 -0.1044599241841297 
-0.08187434377025987 -0.1613514098959820 -0.1076613768060237 
0.0005844299033362418 -0.4201040778412039 0.005529979604130679 
-0.1991663983080623 0.07444159705665425 -0.2063106058473848 
-0.03191812294668214 -0.1270850183371995 -0.1491783186904345 
-0.4030288085464740 -0.3826556780798951 0.4136685212911985 
-0.3577554507678462 -0.3418015924297395 0.3733827587881501 
-0.1174458667037380 -0.04000184149248460 -0.2020040564084327 
-0.04130768137529034 -0.1614969271015508 -0.1494724843257591 
0.05200565341377877 -0.1307193928480626 -0.2684434607716612 
-0.03220468667742309 -0.2243488072345491 -0.09072259040831349 
-0.1021183972718488 -0.1460227868747388 -0.09945598313880584 
-0.3672598547238334 0.09004225147084081 -0.07923874645257932 
-0.3609658202157526 0.06226883358161382 -0.05165964499547939 
-0.3393871500360653 -0.2174730876311402 0.2270536088909061 
-0.2793928566889815 -0.3284079454421698 0.3379414491393311 
-0.2793928566889815 -0.3284079454421698 0.3379414491393311 
-0.3044391836880542 0.04122892116808707 -0.03196125268882230 
0.002238484771935305 0.006993831719059726 -0.3165628729712851 
0.002238484771935305 0.006993831719059726 -0.3165628729712851 
-0.03081420145429988 -0.1681840265918605 -0.1460123343722127 
-0.002056763686951973 -0.1183847431174203 -0.2437669894390723 
0.002238484771935305 0.006993831719059726 -0.3165628729712851 
0.002238484771935305 0.006993831719059726 -0.3165628729712851 
-0.07873333519050342 -0.06036373884235299 -0.2136936445196336 
-0.04075386234710827 -0.1947530168335268 -0.1355660927689548 
-0.3626857942680725 -0.3899410934972916 0.3997301832773917 
-0.3626857942680725 -0.3899410934972916 0.3997301832773917 
0.05771274542141634 -0.04094884797492374 -0.3131063961106385 
-0.3294855106871269 0.4108657877783439 -0.4018639545169757 
-0.3878562038130454 0.4093055447627901 -0.3979572960871428 
-0.3221877072863748 -0.3362693026822367 0.3438507073606096 
-0.3612679182552656 0.3804505190510726 -0.3708376766118355 
-0.3343478161882205 0.3410327320002901 -0.3353423920712543 
-0.008932622726842655 -0.07585791983687717 -0.2734862922243120 
-0.09257213695311499 -0.08933973810678839 -0.1600596499477991 
0.01576254205121203 -0.1291675130665579 -0.1540897247455686 
-0.1366469845236925 -0.05825829763268405 -0.07869080417970031 
-0.1352784375697657 0.02457333083686589 -0.2678464947317493 
0.004403353916596894 -0.06958917451331675 -0.3061153692836001 
-0.1298046100480255 -0.1367765300293327 -0.1019800938332851 
-0.1615441553050750 0.1105567782217612 -0.3077262140643743 
-0.3007725092286116 -0.01940568658626235 -0.009238713287445705 
-0.3097495861774446 -0.3139196701169525 0.3642954100478291 
-0.1879132196539678 -0.09795557809363827 -0.04770269860722467 
0.03902152119239936 -0.1787973581569937 -0.1557108535919790 
-0.3097495861774446 -0.3139196701169525 0.3642954100478291 
-0.04586083314666305 -0.05115448458575167 -0.2254200694487808 
-0.1488004716867003 -0.01065234902103381 -0.1813566136341235 
-0.3667812254139454 0.3753109472624389 -0.3628714142826079 
-0.3793748767863851 0.3877242282684496 -0.3756340283759646 
-0.3793748767863851 0.3877242282684496 -0.3756340283759646 
-0.3953971747928027 0.4043464185196306 -0.3908300942462702 
-0.3771032446866308 0.3862483584892755 -0.3747298346512477 
-0.05287657527405455 -0.05600098344263194 -0.1992045523735948 
-0.06117512140230945 -0.05826671503941511 -0.2043256354869284 
-0.1667639674483428 0.08734084278556437 -0.2219921041972048 
-0.2820897641536872 0.2995043218246586 -0.2803355307079328 
-0.2665591865143792 0.1288814147640787 -0.1665008288575161 
0.06647157458317382 -0.2405321436099594 -0.1464256816026111 
-0.3050888766975869 0.3225681113463162 -0.3034309624630761 
-0.1516008561750199 -0.08392977465297698 -0.1333843251566154 
-0.1363281990970862 -0.01201531375913996 -0.1466976263800155 
-0.2838720401196015 0.1932284687678178 -0.1673704171351389 
-0.3057282704317692 0.3264573429859878 -0.3076375515787953 
-0.3398319375114694 0.3638145263152592 -0.3419791498006863 
-0.007866134102972436 -0.1077545413917396 -0.2487693068080193 
-0.2968271727456803 0.3040997395648226 -0.2862150365259270 
-0.2968271727456803 0.3040997395648226 -0.2862150365259270 
0.09070665059610372 -0.1116826462326719 -0.2221902677966834 
-0.1289171784551867 0.1526481243853343 -0.2823313633770395 
-0.2356027550698219 0.2400752814084303 -0.2263345877878559 
-0.2356027550698219 0.2400752814084303 -0.2263345877878559 
-0.2968271727456803 0.3040997395648226 -0.2862150365259270 
-0.2396306917855915 0.2436433084182468 -0.2211178583522948 
-0.2396306917855915 0.2436433084182468 -0.2211178583522948 
0.1593049033683087 -0.1519653850140620 -0.3046883971974929 
-0.1405635777261091 -0.1512867285496051 -0.05119713659924422 
-0.2776434421186838 0.2837593001195941 -0.2659123050040431 
0.02585458026650302 -0.2663296893806745 -0.1039047874835136 
-0.2989818896538091 0.3054602610506688 -0.2889556808802431 
-0.2396306917855915 0.2436433084182468 -0.2211178583522948 
-0.2396306917855915 0.2436433084182468 -0.2211178583522948 
-0.2255138430982200 -0.05930504699191717 -0.04591001155666440 
-0.1008842824287258 -0.1127211263911864 -0.1233477915713011 
-0.3172306584351591 0.3628126943231807 -0.3317326753988821 
-0.2022794123293259 0.1032651587872450 -0.2310919553424268 
-0.1165431501559197 -0.2682214871083611 0.05704698122559197 
-0.3237737212050973 -0.03321996848923232 0.07162981134810670 
-0.1554801184931168 -0.006265061997822556 -0.1460485502183667 
-0.1774500449990674 -0.1524853509897870 0.01008876339097124 
0.1446152650377368 -0.2191063476840613 -0.1865077616018544 
-0.08399798698330242 0.03216879445781462 -0.2764014598008537 
-0.2209872390994723 -0.1643598491372482 0.1175150346705522 
-0.2942500762998052 0.3502479370611494 -0.3057601366483578 
0.2044152606208857 -0.1752826844649384 -0.3332890027721176 
-0.2942500762998052 0.3502479370611494 -0.3057601366483578 
-0.1978775563987162 0.2141618949661366 -0.2008444533269823 
-0.1826626862754443 0.1980108366725873 -0.1906396712114616 
-0.1826626862754443 0.1980108366725873 -0.1906396712114616 
0.07904588312404570 -0.1836117854375309 -0.2438619658904632 
-0.2841622018751798 0.3097530749860057 -0.2911453530498888 
-0.06131733243571666 -0.0006191157156192233 -0.2520454025607359 
-0.1826626862754443 0.1980108366725873 -0.1906396712114616 
-0.1826626862754443 0.1980108366725873 -0.1906396712114616 
-0.1826626862754443 0.1980108366725873 -0.1906396712114616 
-0.1826626862754443 0.1980108366725873 -0.1906396712114616 
-0.3658191726938201 0.1215459291931875 -0.1144918711020199 
-0.3560440721074076 0.1115102673825446 -0.09484721220724575 
-0.1049118061488494 -0.09443517714513477 -0.1439071900451064 
-0.3646335451204139 0.06167871882835884 -0.04444037633809143 
-0.3760989075536233 0.4253862027827259 -0.4126266601593124 
-0.3416587847240596 0.3488621829128182 -0.3350424326326431 
-0.02135996954295140 -0.1747650926263409 -0.1197833646445980 
-0.1227574104366373 0.007164235743983509 -0.1317770789114436 
0.02370746508779939 0.002004574889544735 -0.3163627927569351 
-0.3185343856967645 -0.04306342465903454 0.08053617223793820 
-0.2837714052831394 0.3305610247215450 -0.2879474148686948 
-0.2837714052831394 0.3305610247215450 -0.2879474148686948 
-0.1672524714478201 -0.07712596889443693 -0.08498616672424045 
-0.3423856204846248 0.3827283019823271 -0.3687676441856043 
-0.3607626271711850 0.3919611869345977 -0.3871442927049818 
-0.3156561924517761 0.3238752918209414 -0.3107067516557913 
-0.4099408249455195 0.4409799938699232 -0.4085420790237975 
-0.3744345243222458 -0.4257063480264066 0.4581861741668339 
0.2418107482191184 -0.2903982256554371 -0.2793793212188164 
-0.3293684762895458 0.1250868636282170 -0.1535082104168870 
-0.04202873593153771 -0.1341314988540005 -0.09579608527469857 
-0.3485155316730669 0.3877135135277012 -0.3644555058928715 
-0.3741253988991627 -0.4643674109246658 0.4804271397166477 
-0.3679239244596669 0.1237643760069371 -0.08593319978652274 
-0.2656736782873931 0.1439854398994755 -0.2302076391533464 
-0.3832570121909396 0.4040294551700771 -0.3794469226127550 
-0.1053149303633199 0.05674878870857527 -0.2801997680346811 
-0.2135713990567202 -0.06592653581661836 -0.003975321764203758 
-0.06694608143510726 -0.01081496426610427 -0.2510063590757256 
-0.05499393963629115 -0.09447753696541068 -0.1950112631239696 
-0.3481326980982956 0.3707865690439778 -0.3528802864041886 
-0.2765086675536509 0.08014077057319297 -0.2294135643562624 
-0.02354196631528862 -0.04236197031605862 -0.3147607752577887 
-0.01750760801044276 -0.09396173528422576 -0.2585674060577884 
-0.1437956749090242 -0.08265285738395327 -0.1593553695533349 
-0.3134654718758344 0.2163707775059418 -0.2985646622710072 
-0.3046732733289387 0.1767487068719441 -0.2917550754064913 
-0.3509032526412270 0.3116880985211745 -0.2762962211148481 
-0.1961582014506829 0.1186919081251932 -0.2693586110527455 
0.4152480023323149 -0.3894970642876985 -0.3657491669852732 
-0.2103384331681865 -0.1800989151615480 0.009439788648880433 
-0.1048699289331029 0.1351755667911405 -0.3611935181433308 
0.3740374142212757 -0.4207303602200606 -0.3484933383834494 
0.1048504755485282 -0.09240194103495075 -0.3859276386340528 
-0.2250468674193607 0.1548733148567530 -0.2946349143849737 
-0.2330435262241524 -0.2639385244917344 0.1618361949443400 
-0.03442492544283526 0.05194008249268155 -0.3870071502896993 
0.4111162323367671 -0.4003990885120031 -0.3484654040909245 
-0.2857212777891964 0.3007365862516466 -0.3825487303392175 
0.005452619940474979 0.008200463223280350 -0.3655671364848477 
-0.06466657469553210 -0.1769346000237632 -0.1106887350111818 
0.08871988622742671 -0.1746773480806206 -0.2385800216299102 
-0.09778230301385143 -0.04028571559978009 -0.1959884720606388 
0.01661089304531657 -0.007285464917852323 -0.3969860074463449 
0.4026366830295455 -0.3915283508270789 -0.3743976230920578 
-0.1030980607466042 -0.1977961479661048 -0.06184125004620248 
0.1769671891373661 -0.2467468673261666 -0.2637722968080604 
-0.1040239083852235 0.04271144144268582 -0.2511154004990955 
-0.1490090821786885 0.08772219975593572 -0.2691290890753126 
-0.1483109901676466 -0.1917213026817432 -0.03787250849888854 
-0.4595779205000438 0.4734215826220721 -0.4387733964170959 
-0.3114775364439590 0.3324207325240833 -0.3027288331516038 
-0.2638958599818737 0.1336189993555629 -0.2432522025678605 
-0.3967750425756469 0.2040674272888680 -0.1841047325403587 
-0.3827959614852408 0.3949977845995392 -0.3770011484440904 
-0.4343338277639379 0.4470440244347700 -0.4219505157641502 
-0.1345631954840157 -0.1126874211835254 -0.1026365375238282 
0.1074247575555288 -0.1044537303871154 -0.4028092607207129 
0.02081631920836355 -0.1977895080784974 -0.1336706018797915 
-0.2782374743392224 0.07789664775569559 -0.1125769528846590 
-0.1356043176838913 0.01657308374218071 -0.1949215967521689 
-0.1248144753912144 0.1057629163798184 -0.3068150976240612 
-0.3286577429616765 0.3438790550799032 -0.3146730007343776 
-0.1242581200571365 0.02117869975006632 -0.2332408788904599 
0.05776823599277391 -0.1463057392404672 -0.2607362562143357 
-0.01799840013510677 -0.1525917318358579 -0.06763930977130442 
-0.3286577429616765 0.3438790550799032 -0.3146730007343776 
-0.3488819315272890 0.3978854140800171 -0.3631400383895160 
-0.3628005114714313 -0.009056600348849878 0.03674099509540051 
0.02219479746168382 -0.2236665018411727 -0.1794830160304058 
0.1135481489148886 -0.2709591910892136 -0.1737524717066756 
-0.1551135023549465 0.005699922906805603 -0.01514812803345151 
-0.3930750602496683 -0.08300557385640672 0.1046152501061287 
-0.4081925906160175 -0.4307475102598352 0.4501922813876955 
-0.1100320924864990 -0.1774039589941210 -0.04917127597789440 
-0.3824712512123156 0.3952363852148061 -0.3770522882436688 
-0.3824712512123156 0.3952363852148061 -0.3770522882436688 
-0.3876973200870598 0.4032503289146857 -0.3690404109848883 
-0.3809758576043347 0.3971383505811030 -0.3546913490552034 
-0.02815868119152772 -0.3174566823161004 0.03733748457010902 
0.01764685661816473 -0.2198560125225325 -0.05802989284450656 
0.1044042783735187 -0.3565625234038642 -0.08466892181249715 
-0.1860315526473265 -0.05679704374729074 -0.09654458508609391 
-0.002830709848744669 -0.2045940077743012 -0.1561791679168299 
-0.3320083874566675 -0.2795224419962455 0.3462334855863362 
-0.07586727140555627 -0.1257789819926907 -0.1286424752953014 
-0.01312887234844400 -0.3001768575044315 0.02585766059507456 
0.02152055537547296 -0.2588529151635033 -0.05771989662582364 
-0.001792807992119915 -0.1906243175069765 -0.1562272949788792 
-0.3684060389534640 -0.2998482291675420 0.3846022248296873 
0.1023540336551236 -0.3897792229353753 -0.06415298061872057 
-0.2052804964226984 -0.1587452478893040 -0.01969650005320705 
0.07956284191048452 -0.3807835747986990 -0.06276065468683006 
-0.1869680735352905 -0.09217511724708120 -0.06695163504727861 
-0.2780677285321330 0.08062573937689979 -0.1742879293711652 
-0.1302664461822375 -0.2056576713741556 0.01081284007155067 
-0.08514722329746956 -0.1099861768303304 -0.1564158990507396 
-0.03365051439215082 -0.1687194606118568 -0.1478329697204722 
-0.1045534139978383 -0.02493175527285875 -0.1941274542969163 
-0.1786702907569224 -0.006576800497751055 -0.1561040737924941 
-0.04653226507080922 0.1082059777921085 -0.2760652320239340 
0.1595147508811949 -0.2172358769683030 -0.2972429627996822 
0.1128598123017670 -0.1885420759533127 -0.2434175625359373 
0.1017836517616833 -0.2177212136273842 -0.2275249292756465 
0.2881113506015471 -0.2619240794480958 -0.3460155311190958 
-0.1455522841118214 0.2132763351559146 -0.2939426194958457 
0.1482190675057564 -0.2659971064591600 -0.1421451601717395 
0.2575591739376122 -0.2536370542276221 -0.2501029608660886 
0.2575591739376122 -0.2536370542276221 -0.2501029608660886 
-0.2438569560122262 0.1683553755029026 -0.1947917079939320 
0.2575591739376122 -0.2536370542276221 -0.2501029608660886 
0.2575591739376122 -0.2536370542276221 -0.2501029608660886 
0.05293446316945367 -0.003502106980319868 -0.2903118722007301 
0.08515690655700027 -0.2480386756188682 -0.1873629109304314 
0.3422533990073899 -0.3199697784739005 -0.3200522122901020 
0.03373034665506008 -0.08867532816519284 -0.3143827702962417 
0.3220651465732259 -0.3043764191020631 -0.3722577304962869 
-0.04278714598395704 -0.1535751474544425 -0.1533528263265921 
0.3944307132546068 -0.3764797025876442 -0.3712383950072280 
0.3836040420908209 -0.3661794685117721 -0.3645990492729458 
-0.04177863143556086 -0.08167802922377425 -0.2525601476360753 
0.03992600440674359 -0.08480801642523297 -0.3063266216532406 
-0.05654513382403469 -0.1869336379053637 -0.09606140052647347 
0.3768227322620478 -0.3586877474165359 -0.3498911909695318 
0.3036931777377647 -0.2898952854836294 -0.2819735625101576 
-0.03056211520183478 -0.1699718906508038 -0.1463175763254274 
0.1321495877076977 -0.1899394723976509 -0.2138030962896842 
0.07791333071849917 -0.1207445875781434 -0.2261696959876798 
0.08143039312038872 -0.2237665448090354 -0.1717753089973226 
0.2632903438948134 -0.3480268712284657 -0.2500211204745387 
0.2105109691192726 -0.1790097676717389 -0.3062228827960425 
0.2682728061435773 -0.2509968861513627 -0.3571948167422528 
-0.09501643492017028 -0.04167051138996170 -0.2021889887886696 
0.3012522508193160 -0.2796258319187515 -0.3381324675501947 
-0.09225571545756710 -0.1271441158838357 -0.08046978745144380 
0.3186946041769750 -0.2973107707161116 -0.2878830685806541 
0.3706370395944493 -0.3504595583069676 -0.3424652914800376 
0.3282460761593976 -0.2825922756358463 -0.3037444273749135 
-0.06477592199896479 -0.3534350030345880 0.1070499750300201 
